{
 "Layers": [
  784,
  32,
  16,
  10
 ],
 "Weights": [
  [
   -0.8482625108331872,
   -0.5713143538533962,
   0.110561314050589,
   -0.9457768705362968,
   -1.8267497246670068,
   0.5597779185432846,
   0.3941850658295154,
   -1.1919537365829957,
   0.5092446089222353,
   1.0212797995720146,
   0.2849495587086478,
   -1.837136447364926,
   -1.669503072046128,
   0.4055461089787307,
   0.0839663255786061,
   -1.0386167910460993,
   -1.2983275417237725,
   -0.918197699925961,
   1.1827952350823612,
   1.8122030164012837,
   0.5892167041851757,
   -1.1095990607750803,
   -0.5405281336855476,
   1.0381899147971163,
   -2.155070725656742,
   1.067648033089821,
   0.8108891556938929,
   0.822481561071595,
   0.5619140082660162,
   0.3087457669619431,
   -0.6512378750570023,
   -0.36422466865430625,
   0.7357345008433149,
   0.2608557492801784,
   0.12258375591107135,
   -0.7034751162978059,
   1.1923479026817916,
   -0.5344742811158419,
   -1.4306885878341382,
   -0.7693557694624285,
   0.8696134083007702,
   -1.1460304214935404,
   -0.2301716954010647,
   0.174441657645376,
   -0.9701185378204178,
   -0.3402163663296304,
   -0.17258444465837908,
   -1.0317964375648117,
   -0.02139241984125794,
   0.8617726980347227,
   0.17124858295327458,
   0.1861679467000277,
   0.5926074847689691,
   0.7730963844633365,
   0.055428198162310094,
   -0.48206934069489943,
   -0.873406533734337,
   -0.9309356002757424,
   -0.8108790430231981,
   2.3924493351442693,
   -0.14278288389819038,
   0.929498173863457,
   -1.1783065808789963,
   -1.1061520421992954,
   -0.2931792209831701,
   -1.0850459478085375,
   -0.5520449665418419,
   1.9384314187985072,
   1.134565112313035,
   -0.42282629723236453,
   -1.6902195555380914,
   0.7134025904192139,
   -1.274221154207396,
   0.9487641860573374,
   -0.13341669345960855,
   -0.8210392953324519,
   -1.4599907574667046,
   0.8216042292499323,
   -0.4137843686663987,
   1.530699156398378,
   -1.2675585169992287,
   -0.4573530776919484,
   -1.3504505200708956,
   1.329315957124169,
   0.21293094549920188,
   -0.19933401173850246,
   2.322301133619243,
   -0.21322272560986838,
   -1.4588160935620715,
   1.053527631989625,
   -2.5832236169430214,
   0.2580107541400891,
   0.45902428421452485,
   -0.79056149716507,
   0.24053512318183753,
   0.045742867039281855,
   -1.009164617100703,
   -0.2448175955072341,
   -0.22165021734617313,
   -0.31074332020177087,
   -1.0333994036369674,
   0.37433135206495904,
   -1.254997560380701,
   -1.5686364283607102,
   0.6676018926244704,
   0.5838721348417292,
   0.9349585247599748,
   -0.8599356581452392,
   0.1881186839066297,
   0.2590087553551446,
   -0.5827824939776145,
   0.9167647913895717,
   -0.9317311666354404,
   -1.6559144244112352,
   1.035397709056886,
   -0.955519266513082,
   0.6187213522752159,
   -0.5228750331551093,
   -0.7005336752122797,
   -0.04053209786393548,
   0.25947003025866505,
   -1.2163382107131835,
   0.24702212586907374,
   -1.022261089155225,
   0.3558516069754183,
   -0.3851750230551106,
   -0.9332077262641889,
   -0.40556305825990474,
   -0.6464167594682679,
   1.4820303238099783,
   0.27997544460140406,
   1.924870321683796,
   2.268405542834625,
   2.0374318539849114,
   0.6260432360099726,
   0.3125167728909406,
   1.0384508702250541,
   -0.07293106662367202,
   1.292738149626348,
   -1.1897127758752017,
   1.2881311724171174,
   -1.4104515147531411,
   1.268308827328172,
   -0.49058726906552935,
   -0.7186662420162062,
   -0.4122331875610177,
   0.363777763147466,
   0.577896221639442,
   0.5067076269509264,
   -0.48970358410876746,
   0.6283722750710837,
   -0.2304748490093318,
   1.0556792407611362,
   -0.22978266976052375,
   -0.011832871734048246,
   1.146591492595947,
   -0.8008570448869503,
   -0.6772959620903595,
   0.13866559750071172,
   0.7285044813784247,
   -0.8387286925274623,
   -1.3946753686301439,
   -0.3108806883067225,
   -0.9259155428068686,
   -1.0954172600004666,
   -1.5051899294976494,
   1.0041739747113727,
   1.5081949879835042,
   0.32776449553073794,
   -0.1163013931382274,
   1.1676403827003512,
   -0.9610474459592945,
   1.1896177405774226,
   -0.1769255456346149,
   0.30546100263888487,
   -0.21728729163817614,
   1.7736094643772482,
   -0.8674887068160757,
   -0.07271692484080552,
   0.003109333198625128,
   0.0634078782658635,
   -0.27795433558847854,
   0.05636467908334034,
   1.1576455727337833,
   -0.5626697654879759,
   -0.8922612431917134,
   0.4367698953849405,
   -0.07161808556090578,
   -1.0152256523098537,
   -0.5176227668377562,
   -1.5400458069060616,
   -0.6930787338192188,
   -0.7365933979260593,
   1.5253424930192987,
   -1.1754921664820122,
   -0.48140389291657376,
   -2.129209428524416,
   -1.242429012256021,
   -1.6774134747108995,
   1.0952772142301255,
   0.1990209381682572,
   1.0589136195858135,
   -0.4570132808120265,
   -1.4655533811374248,
   -0.865179826032643,
   -0.7649001020947465,
   0.6716748705417276,
   0.5467683621172555,
   0.04058821323913632,
   1.512391157065995,
   -2.189206486654609,
   0.27672399553529387,
   -0.5744184827088183,
   -0.20811408019152472,
   0.45522746980443207,
   0.8456283863044117,
   -2.1350366205498617,
   1.5079650589912794,
   -0.2143217419546293,
   -1.7824648500496072,
   -0.6640343318000435,
   -0.13400776149800242,
   2.071652725458128,
   -0.5176509888259913,
   0.6187997606118727,
   -0.5099806885527522,
   -0.711181862617916,
   0.4630156462896217,
   0.9425737530670727,
   -0.8117900957124127,
   -1.4134202536925853,
   0.23368042467277161,
   -0.4608437262232728,
   0.36389820994056377,
   -0.4341492662994529,
   -1.0496113240861553,
   -1.0456255337983182,
   -0.3317167125639297,
   0.9717281290264014,
   -1.0337673477438436,
   -0.06410937448638439,
   0.5073866968784784,
   1.3712037404207433,
   1.7450219512467606,
   -0.29276678943246165,
   0.7264409875652061,
   -0.26728140500357833,
   -0.5053411368307887,
   -0.5203149023279908,
   0.37383791577417647,
   0.5725218300285592,
   1.4550753430900079,
   -1.002309566477448,
   0.6240207480063139,
   -0.013003876618455958,
   -0.029442141868339638,
   0.11150919354299162,
   2.708189702051723,
   0.3920581299255916,
   1.3790278689806685,
   0.676332196717613,
   -2.135248328382655,
   -1.194837665374086,
   -0.5642826969696192,
   -0.28935698458411524,
   0.2587422589212543,
   0.40225643854077925,
   1.3726316264878209,
   -3.442209641047135,
   0.5117948003591944,
   2.0938238608342408,
   -0.10442433453470884,
   -0.8486422886441048,
   -0.57204163509604,
   0.23633682829392902,
   -0.6861589937118576,
   -0.7492543370674731,
   -0.2893141130492234,
   0.7332460780556398,
   0.5276808045914836,
   0.730027759587908,
   -0.7785706409796478,
   -1.4028281973195675,
   1.2640389653563628,
   -0.6678608007991235,
   0.04646459862019126,
   -0.6765153709689082,
   -0.5901016083743079,
   0.8344585994783781,
   0.1252290990904278,
   -1.5018659875594194,
   1.226277927387385,
   -0.5244193379806731,
   -0.1166591376051129,
   0.22664726683776681,
   0.5398709749880968,
   -3.1208387706154745,
   0.20077314416347025,
   -0.6903996600829516,
   0.7710196459967906,
   1.9439735363301167,
   0.26152324076635336,
   0.38867383956534884,
   2.305155990841726,
   -1.1261099299560833,
   -0.4010475602974132,
   -0.5361809244493488,
   -1.748871237038242,
   0.5814576484035813,
   -0.32896493644714897,
   0.009552404717489717,
   -0.20521865204315057,
   0.3270322079812705,
   0.44579649144687783,
   -1.2707177605210973,
   0.18893141210828063,
   0.48500468688486764,
   -0.6781001060552246,
   0.35700602319979535,
   -0.5755554334291334,
   -0.5698450217061716,
   0.23484198293080563,
   -0.9930699486485336,
   1.1813679247812199,
   -0.8984509132169168,
   0.004043639164703035,
   -0.3219886408103589,
   0.30753862956100947,
   0.8268935150968079,
   0.5264159694048463,
   0.0769955820168118,
   -0.3639907941416945,
   0.569263778310928,
   1.3093360222078085,
   0.7957131249576592,
   0.2826728508365515,
   -1.3110583296628868,
   -0.261852815733924,
   1.1770671749013253,
   0.596691431706622,
   0.6460982090134069,
   -0.7053384593414749,
   2.0245524777128767,
   0.9084579786864223,
   -0.7838411639876234,
   0.04571918949470879,
   1.2888648210086608,
   -0.38567218189369984,
   0.6057845256744798,
   -0.6259274365823222,
   2.213593918655112,
   0.5856961955678424,
   1.0240064308595564,
   -0.10592406553386816,
   -1.033434642287823,
   -1.0983428524177965,
   0.3864915265723571,
   -0.5877142295392381,
   -1.9797232850266357,
   1.0094587239820942,
   -0.3732500017455561,
   0.24223150220029777,
   0.10081649208747653,
   -0.6485771875711931,
   0.632488845131733,
   1.7741538832969228,
   -0.24817301020448873,
   1.0947502984703505,
   -1.2386922543495602,
   0.9150193961530716,
   -0.9560564574817094,
   0.45285048125888816,
   -0.07813212743310011,
   -1.1846357419841236,
   -0.6658365740257934,
   0.6574320975804675,
   -0.6095404224198121,
   0.035200256456152455,
   0.5029696617154357,
   -0.70572206382136,
   -0.5727421033384419,
   0.14234814445987148,
   -0.4099998467077712,
   0.10598633597050987,
   -2.573916147029256,
   0.031025936076124406,
   -1.6113439174261572,
   -2.019599751600559,
   -1.166711306396525,
   -1.204146922983044,
   0.13275099911388846,
   0.030198128169813904,
   -0.29708398341225556,
   0.31962142574455293,
   -0.045191551793394194,
   1.297395602217324,
   -1.0738091375418979,
   -1.082844328975068,
   0.2858918825426527,
   0.05570852610289321,
   -0.2829743931120602,
   0.4722527403371322,
   -1.9402008578200929,
   -1.9276935404775573,
   -1.33246875207438,
   -1.007452919229523,
   -0.7467594154566902,
   -1.2289876897494667,
   0.028604002358357007,
   0.45721889826016954,
   -0.960796955879376,
   0.16610116066052139,
   -0.8340317877681171,
   -1.1491949321096282,
   -1.35175395405821,
   0.9093787863990369,
   0.5524058846881659,
   1.9034690055222356,
   0.3874969076004874,
   -1.1251846232989924,
   -0.8411627335525281,
   -0.9665844686041006,
   -2.023318537965546,
   0.11608215429235812,
   -0.7205560382708964,
   0.21149807761288605,
   0.6455831639039783,
   -1.765608332433387,
   0.6016642719722105,
   0.22207204692453317,
   0.44576980510326564,
   0.024403212277664836,
   -0.39162064792007945,
   -0.8475424037981817,
   -0.10834613034634315,
   -0.47522250234388397,
   -0.13703918036306395,
   0.9459146379659459,
   -0.2378238711367236,
   1.1212236226975183,
   0.6403186114406622,
   -1.223759191054904,
   -0.0836260616821428,
   -0.3480474864592237,
   -1.1573324911874325,
   -0.25666733832058897,
   0.4037122698523001,
   0.09220828676109005,
   -1.4293419774168172,
   -0.6472139074022177,
   -1.0815083973633406,
   -0.012093390451384233,
   0.7960920690545619,
   -0.2698408187447148,
   -0.8844977058897586,
   -1.2959969569955812,
   1.2173844234454447,
   0.4025139442248539,
   0.6434878255120755,
   -0.756610141768508,
   -0.9355844352803682,
   -0.14882652652425202,
   0.7219240894198247,
   -1.6316239364201066,
   -1.1378561997255559,
   -0.04595511506534996,
   0.6395620079577449,
   1.1381126459224948,
   -1.123770492916765,
   -0.1529444137872462,
   0.2854583030872704,
   -0.7737450526443818,
   1.030632110429328,
   -0.8434434366899877,
   -0.1054839738074323,
   0.9621900355074263,
   1.1219914878557449,
   -2.2294598079100987,
   0.19966524759383186,
   -0.23761678339890221,
   -1.4702315100103622,
   -0.001507371171105853,
   -1.479522783467311,
   -0.7527237582517131,
   0.1334305607119306,
   -1.5151093106540388,
   -1.6231421283022338,
   -1.5049210541109557,
   0.7154360816067126,
   0.46645656784934053,
   0.6708208320281022,
   0.10380670462478547,
   0.8787781989020053,
   0.7079331951371295,
   -1.1231783928930335,
   -1.4007691945987397,
   -0.49542979158209394,
   0.2779701036035454,
   0.46904163294578316,
   -0.5978249339035688,
   1.4570243369166702,
   0.3631474177072375,
   -0.7808492313998034,
   -0.09114529856761738,
   -1.4541574407599092,
   -0.21768032892081143,
   0.48790630318703043,
   0.9080746003944051,
   0.6977850753427154,
   0.7263544945064023,
   -1.0757045113360688,
   -0.7229939202217576,
   0.6980722364179187,
   0.8365729164477635,
   0.2297525931067573,
   0.26710595585554725,
   -0.7639484389150301,
   1.1128592465663476,
   -0.26691417566909365,
   0.6253063475318645,
   0.9340127659630342,
   0.2609624519144362,
   0.8901939250333445,
   0.08690162028891084,
   -0.7774400977576779,
   0.5961854894801185,
   -0.9019996471811967,
   0.6017319782170032,
   -1.3938190600079985,
   -1.9807862687602649,
   1.5517959154992897,
   1.606887755024965,
   1.7491640764497112,
   -0.29687939583329226,
   0.7412178315431612,
   0.12597921313606344,
   -0.11151396051022894,
   -0.13226864540575844,
   -1.7363564516446042,
   -0.056576107766439294,
   -0.06979466924300282,
   0.3522092102810923,
   -0.8288001579364022,
   0.9992501914374915,
   -2.51097617734626,
   1.5744944003065158,
   -1.0627109002075783,
   -1.12048438314126,
   -0.4945459104554997,
   -0.8567757609130727,
   0.9626378650853065,
   -0.7897832181173249,
   -0.3475123753208956,
   -1.9865132090239108,
   -0.5406253700399911,
   -2.432418152400331,
   -0.4295742502485861,
   0.6110033788347874,
   1.8733618251262052,
   -2.035195526527735,
   -0.6559976458134676,
   0.8608380554231756,
   0.6370756543521727,
   0.8769636008198751,
   -0.207181912522688,
   -0.61229413580629,
   -0.9808540348393433,
   0.0557169761294233,
   0.30493262821481254,
   -0.18661395623051466,
   -2.4629735504460424,
   1.0884810505267741,
   -0.8835709518438524,
   0.5040483702866675,
   -0.9309363209255839,
   -1.2748750353684515,
   -1.2889034493861504,
   0.9885490335945223,
   -1.2034497017460803,
   0.2775928797780569,
   -1.6047612337832293,
   0.9595953109142692,
   1.4274802369871737,
   -0.5040643318754894,
   0.31439816165359485,
   -1.3450533309396793,
   -1.3830509645289604,
   0.9473406385832547,
   1.9663705820147348,
   0.9655773921128427,
   -1.1545525253071138,
   0.36820694182443936,
   1.1605855884305731,
   -0.33072226479830336,
   1.867958487524712,
   0.6749457639887435,
   0.016128538722034947,
   -0.8187532680156546,
   -0.9488153710951179,
   -0.8930934327846227,
   -0.26031221993956627,
   -0.7379788308048019,
   -0.213111993612395,
   -0.5172121644494998,
   1.5068308415418927,
   -0.846652221672013,
   0.5606615743330731,
   -0.7715988060909312,
   -0.5064041728180065,
   -0.0227985403738728,
   -0.6801750667811556,
   0.23301626379200427,
   1.7650018121740372,
   -0.14042631820668736,
   0.6451462559290752,
   -0.7757677111208049,
   1.1795296515053297,
   -0.7807027419792296,
   0.0492942277981453,
   -2.36917451071764,
   -0.7368358957831602,
   1.0692519204421598,
   -0.1711185387588496,
   0.7453234630737439,
   -1.2749750316095378,
   -0.5346523555993937,
   -0.15936669071330287,
   -2.1954621250970074,
   0.44363031573390455,
   0.4333954767694424,
   -0.05887115150407469,
   -2.099752039689642,
   -0.7860317385767854,
   -0.855967452030448,
   -0.40934133460293903,
   0.5445070642822638,
   0.9100485071146918,
   -0.4278371593807687,
   -0.6501474291525298,
   -1.3350087270219209,
   0.5904685440826264,
   0.21471057168419533,
   0.2133354558736054,
   0.4072436076322273,
   -1.1294721642807017,
   0.48236026201166793,
   1.7234712837426622,
   0.13247725840414207,
   -0.5648123451359051,
   -1.5102461981435809,
   0.5852773143182037,
   1.7129020392862393,
   0.8624213051746278,
   -1.0497704843199773,
   1.207826811915058,
   1.2215159062921521,
   -0.6592225039495477,
   -1.3355253257447854,
   0.5539796727482955,
   -0.058821383555044446,
   0.20246906097725034,
   -1.0365383050851975,
   -0.3201807244326328,
   -1.2544112055627927,
   0.455959166511293,
   0.08602260211805107,
   0.19262245063357847,
   1.1704551530732092,
   0.5087105260320167,
   0.4433094386710391,
   0.1439431742912062,
   -0.8833413604170273,
   -0.2367844870846154,
   -1.0311302276241476,
   -1.5446478177212786,
   -0.05826358504356168,
   -0.055707728723369584,
   0.32096952047192073,
   -0.9068914537144309,
   -0.34100818196507615,
   -0.2261621335085834,
   -0.843035028310403,
   -0.5059499885578144,
   -0.21287710023824602,
   -0.6423285793709801,
   0.9946512764270372,
   2.8952470284953056,
   -0.3391267284247151,
   -1.903684582340739,
   0.1602424365250803,
   0.4659235062564699,
   -0.8837854534786034,
   0.10055411673113251,
   -0.4996618613578897,
   2.0257211054954256,
   0.32364303748705475,
   0.6705666594172501,
   1.3246378822030582,
   -0.5778919103606159,
   0.5840169630542089,
   -1.7370661887912053,
   0.5976266465171676,
   0.9787894093757169,
   1.1832442236051444,
   -0.9319366968486965,
   -1.4419507666576168,
   -2.8013402742837914,
   0.44761114128203344,
   -1.6385312865866068,
   -0.1961812569234928,
   0.8691855634229235,
   -0.49149832923708126,
   -2.062918752940136,
   -1.8740249079689402,
   0.5091109891902363,
   0.48809978219815026,
   -0.564794332847642,
   1.1510219225639782,
   -1.626613171657134,
   -0.9455418733480778,
   0.23645784991056237,
   0.17540657968220216,
   0.06841182549899016,
   -0.8249307359559553,
   -1.0356707200521873,
   -0.5625089734084537,
   -1.2398139703384197,
   0.29647370263376954,
   -1.123191801875395,
   -0.33377455972506187,
   1.4320940667521447,
   -0.003544813829842209,
   -0.07901974997353092,
   0.13993833895838967,
   0.28041448486734655,
   -0.8047155738159042,
   0.1625204676655836,
   -0.21391537250346254,
   -0.14815943992497718,
   0.09983569906951092,
   0.7004527540785092,
   0.9919246385906436,
   -0.35750808600746886,
   0.633228155255579,
   -1.0172747936381556,
   1.5916739037824954,
   -0.03435807194096294,
   0.13568270436929972,
   -0.6593443174101167,
   -0.8800440594777021,
   0.2278702595300399,
   -1.7625743244443683,
   -0.4547895962756242,
   1.1925194526617715,
   0.5859936314359899,
   0.014337282906361937,
   -0.6685105511005394,
   -1.252405969656437,
   0.5841224880251389,
   1.147784948167462,
   0.0555039722024242,
   -0.42921486973309547,
   -1.4505710990684921,
   -0.5201902638545788,
   -0.4705488088063563,
   0.9954007629070035,
   -0.5613679598395822,
   -0.5496922387388256,
   -2.1316168869921537,
   0.133422259144467,
   0.1367557587229837,
   -0.05102690623348715,
   -1.1095231547413853,
   -0.29469039972205674,
   -0.4064349203698564,
   0.48451835536204074,
   -0.35607468367352674,
   0.4259240803483057,
   0.6670867009231557,
   -0.16938344554682128,
   -0.6517019393496248,
   -0.951881104186314,
   0.1668041666523641,
   -1.7082418206226753,
   -0.577953447006315,
   -1.4112122067467179,
   -0.16155512547650042,
   -0.433007436131185,
   0.46023867076225855,
   -0.8059224674327012,
   -1.073100362902234,
   0.45097730202458636,
   -0.17906590275793577,
   1.5430665482785877,
   0.9300148074162404,
   -0.48125894603147035,
   -1.0847078257595422,
   -0.20707803919271422,
   0.2022262079217684,
   1.9508448448830944,
   1.2848794686425864,
   1.225410592810341,
   1.1441486267435668,
   0.7424628830859109,
   -0.41585765375593087,
   -0.7356898153449682,
   0.06878824247059351,
   -1.194427951597177,
   -0.3061575594488941,
   0.18671155488094898,
   -1.5900689679581275,
   0.3820569524184875,
   0.35436521730603354,
   -1.4171166543752873,
   0.3168970214310569,
   1.5780289006348904,
   0.19633976712028042,
   0.6616858640744406,
   0.30820096781864526,
   1.649327298990707,
   -0.5623974468554322,
   0.8844347040668735,
   1.1631071103844173,
   -0.07227030304402075,
   0.6070129324139512,
   1.707084310998873,
   0.7903294511345477,
   -1.2278906580400408,
   0.508816374244178,
   -1.0771990253023087,
   0.42051392157225165,
   -0.10935340159972905,
   -0.00012527982340881862,
   -1.0963265667302309,
   -0.7642538263571771,
   -2.0277598762009617,
   0.07329162217984031,
   -0.6956909897296546,
   0.7127119020003231,
   -0.19199026162106497,
   -1.9958999470104284,
   0.7779882885713718,
   0.11478765698101712,
   -1.468520805996461,
   -0.31901420928132945,
   -0.13284696645164695,
   -0.14243251766686035,
   -0.32615573230722716,
   0.8122827151566294,
   -0.2964783145107444,
   1.8841923415033033,
   -0.7819347310412774,
   1.4771918094565668,
   1.7108170534945821,
   -0.155812253075131,
   0.8512227826091873,
   -0.6751881115349304,
   0.6562793122600568,
   -1.6490349235817052,
   -0.3034598059285194,
   0.5212657934611847,
   -2.216811606869236,
   0.39246447365823967,
   -0.5165770112006741,
   0.20634947149185962,
   -2.582491818026323,
   -0.2897086133411625,
   -1.3435402725302246,
   -0.6324002033807136,
   0.25595429119766067,
   0.607654539400073,
   -0.9965263232218108,
   0.4951200658221391,
   1.141742484748476,
   0.4394696865057267,
   0.667757399012985,
   -1.205694763685274,
   -0.9558184808843213,
   -0.8031784399222306,
   -0.3201092793077938,
   -0.9372588409231989,
   0.05344021783127959,
   -0.04631706366747125,
   -0.598743944013356,
   -0.02028839142626441,
   -0.5463992888315498,
   -0.21027634016603686,
   0.18814758848510046,
   -0.6687249606001545,
   0.09100786072372764,
   0.0589621578617316,
   -0.17496639272558326,
   -1.3293794897711524,
   -0.18877852088049307,
   -0.6249606020054775,
   1.6583256743631396,
   0.9062186117615108,
   -1.1066289779802818,
   0.5528283432718175,
   -0.8651952198593562,
   -0.46255808344097865,
   0.6595652198115322,
   2.6676489585478262,
   1.7542733795363281,
   -0.603862616554797,
   -1.139456610356801,
   -1.9068773524772356,
   0.3124197850644315,
   -0.2639101076037928,
   -0.4518428988406244,
   0.073346250839017,
   0.21453492129442012,
   0.27159259106123207,
   -0.7532235855499934,
   0.2896905377670016,
   -1.6490758218888792,
   1.9242667683444512,
   -0.4033097213637249,
   -2.5147992922497,
   -2.2845516121169966,
   0.8546588202188551,
   -2.124824494181124,
   0.28929692735532053,
   -0.4172705543912933,
   1.4515606989399785,
   -0.5766849900376259,
   0.038611721968429,
   0.06351104281543256,
   0.3783208034668259,
   -0.7648362946170402,
   -0.9638040895398459,
   -2.5572808440272343,
   2.532287024499323,
   0.38329371198333484,
   -0.65931747546089,
   -1.5097047711507727,
   -0.17744447481914088,
   -0.03802261686179036,
   -0.09957294029060874,
   0.4053100420606237,
   -0.5503401194660908,
   1.1235427499078403,
   0.7007832328946846,
   0.29556109120921575,
   -1.0809936507731357,
   -1.446445592776619,
   0.44987982619518324,
   0.4710283424906235,
   0.9720469995840988,
   0.0769885986703121,
   -1.4785747390828028,
   -1.407019055724324,
   2.1080572949496297,
   -0.07482503792317183,
   0.13478446663927957,
   -0.7634071746863076,
   -1.036719815731049,
   1.2861137775002611,
   0.07425627844538829,
   -1.1139441359958042,
   0.15709408466941235,
   -1.9551369868509978,
   0.779714893578515,
   1.300337949342156,
   -1.0471672715829037,
   -0.5977074231288737,
   -0.5305839345457041,
   1.303633646573285,
   -1.2665184132168552,
   0.7861352347321526,
   -1.4340091242630035,
   -0.4993208456509706,
   -0.19434630329760255,
   -0.7228618793109437,
   0.07497444844371105,
   0.6149858372774624,
   1.04133319234413,
   0.2330420497494148,
   -0.45219003807698577,
   1.2008415026754764,
   -0.4912578979346042,
   0.6219153779039289,
   -1.1475031854053057,
   -0.22181471369257535,
   -0.5258751038765566,
   0.4773832314634137,
   0.006930629032658958,
   -2.3815140760152604,
   -0.7950036472086238,
   0.3738044752349028,
   0.30232902254311433,
   -1.2826708284770134,
   0.01966185545473391,
   -0.8736673290853808,
   -0.8463591245705033,
   -0.671099364365462,
   0.14342190220359502,
   -0.9149385784659265,
   -1.0759821102033238,
   1.2891585291487753,
   -1.3766394110887146,
   0.31196124166840744,
   -0.4130717749985916,
   0.037442640240237676,
   -1.8477012863045226,
   0.22956006318554434,
   -1.0361962023946942,
   0.6050502305113447,
   2.057825761409421,
   -0.3074368639749117,
   0.10334268269316592,
   -0.26333224686371653,
   1.0966825204040016,
   -0.7101738581922058,
   1.3897259000631133,
   0.6112087663305735,
   1.0052432339421709,
   -1.4717251212968683,
   0.29175157963172205,
   0.06657846937138442,
   -0.6450277432019005,
   0.48124708888240736,
   0.4648871490034868,
   0.4287797107351855,
   -0.4681991193987351,
   -0.1421303282294659,
   -0.24535951744758983,
   -0.3282367260481901,
   -1.0140546169336369,
   -0.4661505741623289,
   -0.16848374101325392,
   -2.5031071755553276,
   1.7701944632338735,
   0.6780623460858856,
   1.8497689539502582,
   -0.2668584473834666,
   -0.5659656139021421,
   0.13638004353183078,
   -0.4749744322879386,
   -0.6246919506286015,
   -0.616969931090003,
   0.5491182507309796,
   0.5195577987886595,
   0.7282811042226159,
   -1.050874819912673,
   0.7814200188235959,
   -0.009884380514018819,
   0.02587934241157834,
   1.8143194256878767,
   -0.5132936127121576,
   -1.4538669145816157,
   -2.26389562562432,
   0.7003896187733851,
   -0.35787337413355386,
   0.9291270550266671,
   -0.6494167312367752,
   0.24039215273666303,
   -0.8284269161866523,
   -0.7470786224849614,
   1.472571433098554,
   0.787809102414817,
   1.2760316663923972,
   0.8838557171684294,
   0.874496436185981,
   -0.1251832986016973,
   -0.03328787401711832,
   1.2227766999339809,
   -1.0209518305508218,
   -1.1189608433434595,
   1.428006961529875,
   0.46958356491100894,
   -0.7366569801158916,
   2.287185940238287,
   0.45385093449678887,
   0.8337023503691456,
   1.1211455487272182,
   0.48658375127406756,
   -0.5024786153476256,
   0.5242183413332395,
   -0.7110238022740649,
   -0.747323832947159,
   0.9691338379267738,
   -1.0817392138382644,
   0.8130759527871697,
   0.7465428533623255,
   1.3527990595103798,
   0.3980188104444995,
   -1.9097779517604976,
   0.20620103790783456,
   1.084834460811759,
   -0.9585193878874159,
   -1.1407079598583978,
   0.40771478192992766,
   0.343447101391035,
   0.5066712276069126,
   0.42409325700400496,
   0.35227899461832285,
   1.943217340992927,
   -0.3503151082141995,
   0.7888766446414467,
   0.8578344783909089,
   -0.8504869002729963,
   1.3049058213303035,
   -0.13163355594011084,
   0.0014437767916025586,
   0.7826237594027645,
   1.234999402773413,
   -0.24775321827593288,
   1.4229788665724956,
   0.6016470814386813,
   0.46607660312301935,
   1.280886638828285,
   0.4131623405262736,
   1.5983210191349562,
   -0.5459376887715761,
   0.018669325098605322,
   1.7823996882140645,
   -1.017498805542713,
   1.0685875761503811,
   -1.1686869831429554,
   0.4114232248196319,
   0.29585032875900275,
   0.8284686510379996,
   -1.8670938119798588,
   1.1731059871703382,
   1.0659858035054706,
   0.6974601227874837,
   -0.4441450743852908,
   0.3537520520303681,
   1.3714182636483,
   0.34341094341893147,
   -0.4046733524406379,
   -0.5489179881171954,
   0.7439817230969703,
   0.46483011041883737,
   1.0588015384144829,
   0.15089921344163867,
   1.7495624485799919,
   0.3858162968888782,
   -0.16547508492777824,
   1.9112188108965416,
   0.6212475513807846,
   0.8706808926104247,
   -0.26736933767960175,
   1.3272178623002713,
   0.6966269085270125,
   0.9865892784683277,
   -2.567229217290427,
   0.2799301209679226,
   0.564060725764337,
   2.3201934284094827,
   -1.2031634623028633,
   -0.41251712422587056,
   -0.25393406321191536,
   0.10330386602587233,
   -0.7527342035121316,
   -0.20923508553100523,
   0.431797447233138,
   -1.0661547179557869,
   -0.10390613178049724,
   -0.5912308041844151,
   -0.37491920415429364,
   0.6419016294377825,
   2.164636282992913,
   -0.1512358973091545,
   0.5743819115547409,
   0.0890001463754849,
   -0.3938851821956146,
   0.8322108627797731,
   1.2020602335813377,
   0.2966774556235635,
   -0.07651202078503805,
   0.5681492973030561,
   0.41634872833906156,
   0.38891263096054585,
   0.2387190493925915,
   1.6179377795047796,
   -1.6186394304357619,
   -0.5362749143222056,
   -1.499964837240426,
   -0.18220273766809658,
   -0.23350809843120965,
   1.204318021751664,
   0.8288121490647775,
   -0.7651331577992863,
   -0.5639346170641438,
   -2.5519956311959975,
   0.2703337476849899,
   0.2514253306525346,
   -0.5932944950007699,
   1.3780410432361616,
   -0.09099450346429512,
   1.4058569561330712,
   1.0575410068195685,
   1.096203831854751,
   1.884861000878157,
   -0.4372318505982603,
   1.1772721095958005,
   -0.2789892127499798,
   -0.047236486541106106,
   -1.6528099827448686,
   0.005389130583079167,
   -0.414469591332675,
   1.3421128923934653,
   1.2258605699579739,
   0.1244868099558384,
   1.4635405283793663,
   1.2568031006471891,
   0.2099510041716299,
   -1.4771971667334047,
   -1.4182152517080537,
   1.1357137219614628,
   -1.3628339183366573,
   -0.5251672682074,
   -0.1688720112378177,
   0.6235462437992794,
   0.21643900450470235,
   1.043238536613216,
   0.8679858841729972,
   0.15767877348529552,
   -0.14684216518860257,
   1.576646651499693,
   0.49305793127587905,
   -0.27049742233285806,
   -0.5026743542785039,
   -0.21412211067833153,
   -1.7271991327357128,
   -2.0186124308521696,
   0.03938514654451991,
   1.5260317247952513,
   -0.9624321021974581,
   1.3670386006047832,
   0.9053536862554769,
   0.28424023881422056,
   1.3875840222832345,
   -0.8693941819900145,
   1.085455617029143,
   -0.5322495254291357,
   -1.2867858437848307,
   -0.9035126559911052,
   1.5636007720724778,
   -0.8794922352778238,
   1.0773492615857514,
   0.3093413637490013,
   0.7766206486668455,
   -1.2942061346424418,
   0.25096999098901657,
   0.7353554460845724,
   -0.5268554957694362,
   0.7780928624513729,
   -0.9670422486454422,
   -0.639612622871654,
   -0.8766606820493554,
   0.6451879481444255,
   -1.3590499820656428,
   0.7814396069535602,
   1.651577289193061,
   -0.32383337969398385,
   -1.126090606335529,
   -0.11677426301683082,
   -0.4486631576876249,
   1.0545607940071173,
   -2.578849432145199,
   1.3742404201870986,
   -1.2842810649757457,
   -0.6511958509938677,
   0.38476387162313047,
   0.7461112304814979,
   1.2573011525529818,
   2.0810581485774597,
   -1.317382465282119,
   0.7863424655500044,
   -0.28780523351201986,
   2.124251989326715,
   0.4771918348815857,
   3.2059474061934394,
   0.5531963153418326,
   -0.48888202642598616,
   0.4112665306438353,
   0.3200985306807659,
   -0.9817120183952965,
   -0.9701089117600364,
   -0.9735324511373655,
   0.40469301184248857,
   0.611626732427207,
   -0.348593232154102,
   1.7530323998279038,
   -0.24358143325519857,
   0.3145903189383106,
   -1.0934564669422289,
   -0.38983806752766537,
   -1.0226150156040485,
   -1.8213681064340184,
   0.13640335649179225,
   0.3488789476410392,
   1.3050043348518658,
   1.5203586253275982,
   2.360456079100621,
   1.8652908699144801,
   2.1294290395605455,
   2.204822660490276,
   2.3602205807857866,
   1.454631987575534,
   -0.8462079496953376,
   -0.04092668241334825,
   0.40427240999214525,
   -0.438532230281236,
   -0.9193925871642191,
   0.3971198871001182,
   -1.230733712260621,
   2.217968846595645,
   -0.46717392362651033,
   -2.0440029737655045,
   1.0488386740985884,
   -1.1215530296253313,
   -0.8279689797876205,
   -0.05997808720296231,
   -0.43773498177883785,
   0.1757396475030855,
   0.43308986617361916,
   -1.12877426080244,
   -0.8368894047026948,
   -0.19587606457977982,
   -1.8075885543781296,
   1.2974257640674105,
   0.7626169906603675,
   0.9413518447793651,
   1.4399373088053866,
   0.5975802434325901,
   0.7356017051652078,
   0.015459966650270275,
   0.33875607659485746,
   -1.2670711633503784,
   -0.44187834107410584,
   -2.1906406651779764,
   -2.047645753035229,
   0.14396780516092447,
   -2.669737977367909,
   1.4165984177891848,
   -0.6872989714439678,
   0.8383888915301406,
   0.7719817660011634,
   -0.5282287875871203,
   0.15344877477930777,
   0.13476309871668246,
   -1.1837295855329406,
   -1.019304269098568,
   -2.44189350951666,
   -0.02565787771578454,
   -1.305249358968008,
   -0.29622116430661105,
   -0.36059133439324903,
   0.24279828619693178,
   -0.3500650653847208,
   -0.4560402903526797,
   -0.35707345541349333,
   -0.9731077293084114,
   -0.30170624097246174,
   0.38534253230655763,
   -0.6474611337174816,
   -1.2163515168954442,
   -0.39329157304124446,
   0.0714406295799896,
   0.5354737191183618,
   -0.4961393660297245,
   -1.0145218156600713,
   -0.6114185462578302,
   0.22550614967224616,
   1.9371665964840592,
   -0.7220454216897149,
   0.816320317283685,
   -0.9143536844333916,
   0.24486163539370265,
   1.0351149592423114,
   0.46207338604490206,
   -0.2777454496283618,
   0.591805419064395,
   -0.537420305008331,
   0.9344769476161234,
   -0.34837957880134524,
   -1.6778176171028292,
   -1.228605427125287,
   -0.7606571975142065,
   -1.5775691039453303,
   -0.4465550781071227,
   -1.9917466832585304,
   -0.017590317663700103,
   0.14205506453524586,
   -0.56963295797104,
   0.5018710832649765,
   -0.841163283966841,
   -0.16252440533163767,
   -0.2523402311841657,
   0.531398423841577,
   0.08190319683377972,
   0.37035331335226235,
   -0.006976069938098555,
   0.20602932798047566,
   -0.5131634664747843,
   -0.3966179445727867,
   -1.8067783254469092,
   -0.2661066463629057,
   2.112155723573507,
   1.034365654314241,
   -1.642016988897495,
   -0.4733215290389074,
   0.31274892036717555,
   -1.5966404437274284,
   -0.5644505127244159,
   -0.07997036574213476,
   -1.1334213695763602,
   -0.339104622882817,
   0.2873583552409475,
   0.008743790533805655,
   0.3351352478907391,
   0.5528008403550764,
   -0.19703998358408392,
   -0.08573220093648781,
   1.2486776767508372,
   0.842841898979217,
   0.6505556700553506,
   -0.3712455426481597,
   2.3266392886282885,
   -0.2957012159083009,
   0.5924600474900301,
   -1.0346307566419302,
   -2.3326209777868607,
   0.14438126012895539,
   0.4007411298415433,
   -0.3239183215920325,
   -0.3671249804196637,
   0.06995640597345425,
   0.8023871113326442,
   -1.7637767965513138,
   -0.7817740224481138,
   0.4212722343353071,
   -0.6876519299712476,
   0.8192117626134576,
   0.2172281583824781,
   -0.6441965729101242,
   -0.2692497206389258,
   0.45360197069652813,
   -0.8736909270924319,
   -1.1098571974051998,
   -0.2564668384449499,
   -0.8311177588404529,
   -0.0464537975487502,
   -2.01493213737804,
   0.15545366388458112,
   0.8445242867280905,
   0.1963456821576594,
   0.5486519472051506,
   0.5542982428038816,
   -1.196880198699844,
   -0.9417137130337055,
   0.49024399377021854,
   -0.6171197389480708,
   1.1093170021536536,
   -0.2147108858988922,
   -0.5299313151762863,
   -1.4868105669379266,
   -0.6925667020643156,
   -0.6088361790851073,
   -2.070421278460834,
   -1.2981659630238411,
   -1.1211858055619388,
   0.06512639260879831,
   -0.7534883161715319,
   -1.3445192108316264,
   -0.4015599536135719,
   1.3660239238078697,
   -1.227946242923954,
   1.0532644689614001,
   0.5243749883084515,
   0.08462114803023897,
   -0.3947329945833402,
   0.8279882864266065,
   1.9291249198366351,
   -1.1704728624044547,
   0.12660431116290563,
   -0.8632661159526553,
   1.4695467065478556,
   -0.25253554318243365,
   2.8016287220790432,
   1.3338102229111366,
   0.5203569537862005,
   -0.17212386051248116,
   0.37270096915532286,
   -0.5081328393481607,
   -0.1165428407161687,
   0.3998535129549799,
   -1.602618399585381,
   0.5280742580605777,
   0.6139910308520091,
   -0.17056722203857272,
   -1.3290149614394768,
   -1.6760986518366283,
   0.01750167540874975,
   -0.26701028973808894,
   -0.5316252501479262,
   0.756129940203775,
   1.287107443961367,
   0.8439034214673181,
   0.9786510884882663,
   0.6278467290825144,
   0.6884024532026806,
   0.3024065241526166,
   -0.28547756527923457,
   0.003390912853359684,
   -0.5104216288816675,
   0.47440731074016407,
   0.5110151987957223,
   0.18933219334574353,
   -1.1082103000735928,
   0.06605928395152505,
   -0.7831644107479967,
   1.7533376845684674,
   1.0400490634411603,
   -0.9670063786923474,
   1.8953412412293105,
   -0.4414924032829629,
   -0.6792325070564565,
   -0.21050840716461328,
   0.5178367350794337,
   -0.6632692845606255,
   -1.3681994642380964,
   -0.26709270839571425,
   -0.8014290250798848,
   -0.22635871199603674,
   -0.21596885205124602,
   -1.4048027456993315,
   0.08313088850929296,
   0.9339302051330085,
   -0.4088006945978138,
   0.4025100444975884,
   1.66690522796364,
   -1.0682730419598312,
   -0.5238005156527855,
   -0.40487701218818556,
   -0.5586623046554067,
   -0.24630633975546745,
   -2.3533206796626587,
   -1.2936190267398109,
   -2.35851564169371,
   -0.031912267406800886,
   -1.2152584814758451,
   -0.0592511294972572,
   -0.7689848694695676,
   -0.46297560025068524,
   -0.7168458804106277,
   -0.8304040821778316,
   1.5235513168952495,
   0.6907965133932745,
   -0.06598635283672097,
   0.43248524179897996,
   0.11427307620035108,
   -0.9467095377235343,
   -0.05894275155161501,
   1.112546286707618,
   0.5691047344922688,
   0.6526834270138229,
   -0.06019146281351049,
   -0.3522423843207761,
   -0.8521200226459749,
   -0.3618062539244325,
   2.4415674202018867,
   0.8813099521723204,
   1.4845436064236122,
   -1.4820987721450256,
   -1.7702263389751898,
   -1.2637267956613778,
   -0.29546225923004715,
   0.4836974498847596,
   2.232720751069901,
   1.4837908302934744,
   -0.7813550680548768,
   -1.9024426979656823,
   -0.14381580914870284,
   -0.14807501807040113,
   -0.4625691815027706,
   -0.8262393269448675,
   1.288558760449852,
   -0.6651286929906511,
   -0.5189514380350457,
   0.3788490844068493,
   1.0505304847457373,
   1.7771929416779653,
   1.1010285746346975,
   -0.8997158114652815,
   0.446744451834698,
   0.5414088932833279,
   -1.9645479500247482,
   -0.9810158191623067,
   -0.2437797661277008,
   -1.2057992552864183,
   -0.17239762457435273,
   0.7707146756166489,
   -0.5711272095751061,
   -1.6214089094459658,
   0.05953211977641509,
   0.5553798474036952,
   -0.46710887354914865,
   0.5313739005426864,
   -0.11752088645155617,
   0.8117449768676342,
   0.17882059242190482,
   0.20812620046061384,
   -2.120289818381454,
   -0.5182488925362085,
   -0.47973657713097656,
   1.3265219807060895,
   0.07695743608876272,
   -0.2668994166357889,
   -1.065088834085218,
   1.180162555689022,
   0.31143715956763013,
   1.2578303665772257,
   -1.4557724540343908,
   -0.2850713821610157,
   0.34911214892830045,
   -0.6072624477618708,
   -0.7032615850265246,
   0.06825700207877361,
   -2.3688496404685044,
   2.02980268363503,
   -2.4248627573235573,
   0.27890423542556514,
   0.40954093909990164,
   0.570972657464659,
   -0.15374339467438577,
   -0.921268825940393,
   -0.35050076364548427,
   -0.27426979156970677,
   0.49999559911659247,
   -0.05278202020736147,
   0.9913199862387927,
   -0.24653323764905966,
   -1.3731313327445682,
   -1.4446193878743026,
   0.4277736133235368,
   -0.14517211572786576,
   -0.9114881224610825,
   -0.4613049582717486,
   -0.6636315136330568,
   0.6864604982201263,
   -1.759950185207935,
   0.7060667726752998,
   0.6663983786960955,
   -0.006885366616591642,
   -0.7471860318541242,
   -0.7830737363210777,
   -0.17886073224330473,
   1.5539237303566598,
   -0.8573206489193087,
   -1.068356045259958,
   -1.1696223998589093,
   -1.0930153444475015,
   0.13209466794988317,
   -2.048532177649328,
   -1.0825286579945963,
   -1.1562607554872644,
   1.0775578273055062,
   -1.2689018895070878,
   -2.4709024125435763,
   -0.7036433517981712,
   0.20072109791576037,
   0.2012723606101855,
   -1.0196240725504315,
   -0.3590053587286582,
   -0.7383234587497027,
   0.2710374428022612,
   -0.18641632408756054,
   -0.08187102409626991,
   0.24620926859041434,
   1.376579173045384,
   -0.9950790662074308,
   0.8355272442563196,
   0.9381345710672102,
   1.2213558402803133,
   0.45927522190819803,
   0.15650128013800635,
   0.84314661193633,
   1.5985118226143384,
   1.2300132746382697,
   0.45332987760186183,
   0.5297558777489009,
   0.20750452129332306,
   0.884536743557986,
   -0.3457643665855586,
   0.9438120699337424,
   0.6290118777647384,
   -1.568087015805775,
   -1.3489897290876842,
   0.08056987707051007,
   -0.9805054466893526,
   -0.435433374551354,
   1.296176903693714,
   -0.7418877218847411,
   -1.1647073099134222,
   0.2704632564015335,
   0.3157247274775757,
   0.9350269743536211,
   -0.29812670984533624,
   -0.16843375571742172,
   0.2144544996908417,
   0.7938136951204956,
   1.6134437481042623,
   1.8993469674120302,
   0.2521805010610878,
   -1.1983111774542552,
   0.7108106872491696,
   -0.9899856094854639,
   -0.27579327784848523,
   0.8004515677629207,
   -1.3208333870300824,
   1.7312511140040205,
   2.125106120903175,
   -1.0818097449808148,
   -1.104836323193431,
   -0.6332695781618549,
   0.3644294831572788,
   -0.5383830514605147,
   -0.42406199441814224,
   -0.07869839568372879,
   -0.966329338478021,
   -0.8164715102944987,
   -3.074879660386067,
   0.8537607867570054,
   -1.8636500852562181,
   0.9678021214955412,
   0.019636715028636394,
   0.041660956594940485,
   0.5395812729882093,
   0.6247583925576551,
   -1.07321557287942,
   -0.34723248058391665,
   -0.2639207827265849,
   -0.23262835140471655,
   1.1586658005458699,
   0.26418271941197635,
   0.4306589656775053,
   0.3808884578480606,
   0.15285054712463944,
   -2.3618513430437362,
   0.37838185923581424,
   0.5777160127863884,
   0.07473971224618878,
   -0.07448728356875031,
   -0.6169547873340503,
   -0.1776911061808274,
   -0.8291194052766395,
   -0.484070426503072,
   -1.0259211290533268,
   0.6645446996642783,
   -1.8463580826944184,
   0.5481829830659252,
   0.08128858721627892,
   -0.2662598270950225,
   0.5493699254279063,
   0.25198809842518205,
   -0.6393267463718167,
   -0.8705041914341305,
   -0.8894620671773491,
   1.5842967730759883,
   -0.35949832740414966,
   0.6494457141190308,
   -1.6712329881062655,
   -1.289095100745797,
   0.041108392536600376,
   0.5421818607576543,
   -0.34860119212691143,
   0.2929951630074866,
   -0.8212401462873502,
   0.4937869727446022,
   0.1411832560180678,
   -0.03692264205005981,
   -1.2000261869680364,
   0.6006088398461704,
   0.07702160504861347,
   0.17798267407641669,
   -0.04804966418229879,
   0.11636804070845685,
   -0.0011873183382971465,
   -0.7904374765211051,
   -0.23218835314379369,
   0.902366374554478,
   0.00580482199875054,
   0.743193335978861,
   -0.15407592649332436,
   0.5456074395691045,
   -0.8426105073605998,
   -0.6665346206365614,
   1.7133636117432436,
   -0.4050573439487074,
   -1.0487573072440124,
   -0.35293646015349095,
   1.7921641146173082,
   -1.3072997449585142,
   -1.4956830262889829,
   0.9478178741980622,
   0.5478768932997241,
   1.7736585292979794,
   -1.2021315813264335,
   -0.481869034070559,
   -0.16392987950982527,
   0.1304742343211854,
   0.3520653350345674,
   -0.32832791751070406,
   -0.41469682660149115,
   1.3117928239381282,
   0.7820393695906506,
   -0.9016189731861254,
   0.7871407982687308,
   0.2580898753883045,
   -0.19176594254970014,
   1.1119202393606529,
   -2.0969072979579857,
   -0.9047448923645564,
   -2.249148475552847,
   0.5946812512049086,
   1.2750965945046557,
   1.5737753912641608,
   -0.6253767200478724,
   2.579683105609823,
   -1.172553202575442,
   -0.5931815818074053,
   0.38992114951730994,
   -0.7382111047335214,
   -1.3064345516425697,
   -0.4626923386254018,
   -0.14972290297721305,
   -0.5351020984268243,
   1.5232164469366098,
   -0.3961149742119423,
   -0.5239204591795907,
   0.728532239852444,
   0.385124673692553,
   1.895930949813863,
   1.6777336895855506,
   1.0170297293244788,
   0.4281634109737176,
   0.2021197751041532,
   -0.6715309788438634,
   2.795587725029373,
   0.30037319760988473,
   -0.6963806368188219,
   0.6913701057068312,
   0.8656657201520744,
   -1.2443317154201505,
   0.27234276200833857,
   0.9442252853524731,
   -1.3834211069910058,
   -0.3455164004625996,
   -0.2625018390952069,
   -0.37601765780343455,
   1.9274793080724226,
   -0.985694019314584,
   -0.9784502541178595,
   0.17270474305484862,
   0.30505485778279734,
   1.0357433395298652,
   0.16527814491504333,
   -0.19970492291809291,
   0.26925829261158835,
   1.766568399508584,
   0.6233143706448709,
   1.0808257936475167,
   -1.050321133468114,
   -0.10618808898807497,
   0.3713153443352172,
   1.9570204458662914,
   0.47997374927850817,
   0.06588424661282725,
   1.0462415414987074,
   1.6844732221428727,
   -0.2639328710826096,
   -0.7179372502667618,
   0.6137828589095151,
   0.4257442408271643,
   0.17411836063868508,
   1.1402675456531237,
   0.2230088180429062,
   0.5995048060470562,
   -0.09634730771922248,
   0.03533640517449728,
   3.0058190791444583,
   -0.14919175203827204,
   -0.12675300152879287,
   -1.1345671851477617,
   -0.47939435541278635,
   0.7608071899345,
   0.3745763719068993,
   0.9615020089685674,
   -1.7640578124377715,
   -0.7631616997082056,
   -0.07179018877523169,
   -0.5168038883430649,
   -0.4344061920669504,
   0.1407205797056003,
   0.50502104365597,
   -0.5396809705243494,
   -0.11219111183341146,
   0.3479155031698173,
   1.0206251598157603,
   -0.04967775814973219,
   -0.5486484135559446,
   -0.15630857264978754,
   -0.08556730982707884,
   0.5631101664762896,
   0.6434894291149995,
   0.5899869616057547,
   -0.18552441253231416,
   1.1613306674680874,
   -1.2354712515043018,
   -0.12716675347189074,
   1.0458767353713463,
   -0.9413175747584185,
   -0.6848507290952551,
   -1.387577711503414,
   0.27570575871435254,
   1.4996881714768135,
   0.62721874829825,
   0.5251089708678792,
   0.5484606320343416,
   -0.515446047698475,
   -0.9080484124790217,
   -0.3575955656077303,
   0.3965273024018837,
   0.39987847690155803,
   -0.7188553705109585,
   0.06397817463592605,
   -0.03270760636865782,
   0.46289454564383387,
   -0.8716611236574816,
   -0.6058412580922907,
   -1.098657772615357,
   0.5672320896095746,
   -0.29914855821752223,
   1.014734567207724,
   1.0784911583619705,
   1.294801895399761,
   0.7704243630097706,
   1.3907186895135115,
   0.3566965153080612,
   -0.7428723346434423,
   0.2042506069005634,
   -0.8705530946385219,
   -1.074091996745481,
   0.4005456361689613,
   0.9327212360081925,
   0.7071874360067445,
   1.221405404657678,
   -0.6256240700833695,
   -1.6807488483223463,
   0.23919664533959678,
   -1.3049803429115396,
   -0.3138905105736413,
   0.11150034121731457,
   0.11331583792193085,
   -0.3411983619065525,
   -2.1197654160427164,
   0.2906222842060868,
   -0.07828096031700459,
   0.24267582546656555,
   2.2315158925485368,
   0.5375884716716878,
   0.6486208188446467,
   -0.4767951865037908,
   0.5089278197545487,
   0.2175902189653431,
   -0.3535057668069686,
   0.7987883555183263,
   -0.04940646377228527,
   -0.9376967879079161,
   1.4175769623117915,
   0.43140927957382585,
   1.0845766537295598,
   0.7630416196178713,
   1.8025814658097692,
   -0.9544785762253911,
   1.6140623433708083,
   1.0694513448569887,
   -1.1224038109311438,
   -1.6581632948955816,
   0.8879075131418519,
   0.7216615774882653,
   -0.02310113577489858,
   -0.4324906599328481,
   0.7950052724702598,
   0.6722360377593148,
   0.3579605427186301,
   0.8631952901804824,
   -1.481684132672324,
   -0.4682155849914567,
   0.8026734276510683,
   1.1339295471885058,
   -0.5715831912043552,
   0.8238289108070244,
   0.9184903436806122,
   0.1838795148507559,
   -2.1186972829386526,
   -0.33973404866367546,
   -0.13533619512800105,
   -0.2167967521663144,
   -1.4726608364554936,
   1.3099115031897404,
   1.220848980682608,
   -0.7762995779962073,
   -0.7907904974517924,
   0.7836224848192073,
   0.2622201791029232,
   -1.146362312190913,
   -0.21920524064150185,
   0.24212618107504075,
   -0.46469910306866014,
   1.3268311696795543,
   0.10938390843775153,
   -0.5696344938264707,
   0.5128566996965772,
   0.659010493972653,
   1.6784094803148681,
   2.0298212057381964,
   -1.2392186913013952,
   0.22954997050627296,
   1.1374124141084774,
   -0.8705842466715346,
   0.31789665914877646,
   0.10209183234953138,
   0.8856508266069355,
   -0.43717996180217755,
   0.6819136851069926,
   1.3539388657413627,
   -0.037784637633559534,
   -0.3578041542774887,
   0.5933090331844865,
   -1.478418248467365,
   0.007805330611409673,
   -3.3271727412833085,
   1.4782165290090918,
   -0.7109574691118015,
   -1.6521578333309308,
   0.49778977014961046,
   -0.19365248243271627,
   1.8909470369650574,
   0.34099753579482195,
   -0.5570257512364394,
   -0.38533732437789464,
   -0.1542537000475632,
   1.7590481689779829,
   -0.474191023406368,
   -1.2748684079822896,
   0.010664266921585832,
   2.899496986613888,
   -1.157687430393784,
   0.12288875958919779,
   -0.6754641217180556,
   1.700278894520015,
   1.1578872453890778,
   -0.07842287063603592,
   1.2687828639250576,
   2.1874514562389726,
   -0.014916461441616815,
   -0.3846898052766234,
   0.28248967519847323,
   -1.3592725109007815,
   -0.6684091982490841,
   -0.9733598497352488,
   0.6666108128422293,
   -0.8465375394060667,
   1.292257453326072,
   -0.7699482168284959,
   1.3590973718749368,
   -1.2821043434360986,
   1.046305733310532,
   -0.8150089350223753,
   1.859767261946097,
   -1.539733158016167,
   0.4641889234826279,
   -0.2060374867390656,
   -0.2952080155815022,
   0.40176720199640564,
   0.3304192784065507,
   -0.8324198555983537,
   0.7932070157021884,
   -1.069912949090094,
   0.679638046528211,
   -0.08142453092770505,
   0.24891273317584858,
   0.09709547347147585,
   -1.0653404008824077,
   -1.3359209273166721,
   0.15565992111119092,
   0.00696841708797547,
   -0.9462030847245466,
   0.1281948170419061,
   -1.4184171701104498,
   -0.40189792923035994,
   0.34712949644610647,
   -0.42553312636041934,
   -0.42977636199899766,
   0.6305793092953671,
   0.29879177757431136,
   0.8985302799182283,
   0.16669931886030714,
   0.22745583365142655,
   -1.024643270106693,
   -0.4223021335064979,
   -0.39687901941734866,
   -1.0878893813914705,
   1.116324224358532,
   0.2607630377120182,
   0.5581349314855892,
   -0.8381923808558828,
   -0.8778312557823305,
   0.02203597333546737,
   0.3434378295867145,
   -0.6570631801416241,
   -0.9398329611635757,
   0.48984233975523767,
   -0.5641620641362096,
   0.29396307246323683,
   1.6560520676351338,
   -0.022317980593190123,
   -0.9399399061228005,
   -1.8550510963774332,
   -1.0168660889556091,
   -0.05221276499275022,
   -0.5817791137494877,
   -0.5425402214416761,
   -0.6441331308490958,
   0.7256218033647053,
   0.0008393158814437864,
   -1.0754636422239048,
   -2.4235605133832308,
   -0.14892076920186917,
   -0.35250819790715904,
   -1.2526162201737319,
   -2.3305714637094006,
   0.5889487790834799,
   -1.57363394871886,
   -1.3022634770508115,
   -0.39395839713217845,
   -1.9988552116710032,
   -0.8629124276714407,
   -1.2377916722852202,
   0.7011379477739788,
   -1.9666923753947856,
   -0.19247511496457304,
   -0.9097950529634901,
   0.11831449688168384,
   -1.6650102653915364,
   0.3614383675505211,
   0.14284421934204777,
   -0.2377853948768285,
   -0.42961578835866543,
   1.283414097979506,
   -0.645190870684353,
   -0.7188711139617846,
   -1.2462203230446613,
   0.04769514058750986,
   -0.07042089198116597,
   -1.3570324294040592,
   -0.29105321456275657,
   -0.567521994837695,
   -1.8454957988380591,
   -0.49018737148079555,
   -2.0264402388106655,
   1.0834987845283068,
   -0.7477787162611357,
   0.2697463215743116,
   -1.8653540303275373,
   -1.2916893243661445,
   -0.5338252147688468,
   -0.25527179009247075,
   -3.331126382049662,
   0.2107236612101894,
   -0.8373529001545214,
   -0.13111771215638393,
   0.3336850012579924,
   -0.39591017424903474,
   -0.15473250711218853,
   -0.28355310611247164,
   0.21805290837614189,
   1.1323112166778762,
   -2.0414375198960055,
   0.2498403814516529,
   0.16811731954553275,
   -0.3389856308878419,
   1.1910411713147215,
   0.5716153795923921,
   2.682090064342752,
   -0.5898641516564803,
   -0.47108803597974397,
   1.1808614441051097,
   -0.9953137043694642,
   -1.4780047960186025,
   0.35963972973197583,
   -1.9343527712502036,
   0.5693904121211582,
   -0.9374572433759094,
   -0.03308385751273724,
   -0.041933935957099544,
   0.5509432092737475,
   0.21628998476163933,
   0.010246689499942943,
   -0.4256555535555068,
   -0.4078066223669049,
   0.2581811320371502,
   0.18316407448833505,
   0.25486566094760343,
   1.0235266347313066,
   -0.9142041184224128,
   0.9326731348142445,
   1.2321355242820973,
   0.11296288789700504,
   0.11289493113251167,
   0.3326317435618025,
   0.18255225670800437,
   -2.065869740519015,
   1.060224798413118,
   -0.5343756359449953,
   -1.9977605162582097,
   -0.2686423860334966,
   0.5908471381217072,
   0.07068244027987995,
   -0.3828576785011355,
   -0.6200021078932856,
   1.5894841898883392,
   -2.0110018669385124,
   1.4469882069345799,
   -0.4642484725289962,
   -0.23709842485006505,
   0.09744484821458305,
   1.3775281386505036,
   -0.26587123173668364,
   0.8450821744085198,
   1.0101615934519497,
   0.29896395290820127,
   0.6754509520408217,
   -0.1356247307155385,
   -2.1638702486014334,
   1.2863374818748141,
   0.8535522830280247,
   -0.14540629236088037,
   1.7574260472090097,
   -0.32605317577208126,
   2.3946341010735597,
   1.1497358388042027,
   -1.7525386095683624,
   2.0088144886061396,
   0.3717578421473892,
   -0.6666232557111386,
   -0.9901427364944969,
   0.971559016077766,
   1.5019955464696757,
   -1.322776768504213,
   0.6783457946741056,
   -0.5800467147761846,
   -0.8398374777084866,
   -0.06192634409477349,
   2.0121889033588087,
   0.40877158469267943,
   -0.5730451604288661,
   -1.4023840177978881,
   0.8347569227790469,
   1.1342117682802386,
   -0.13925786671561116,
   -0.9923843903986698,
   0.9419885300317343,
   1.2408368340880882,
   -0.48545351618779226,
   -0.05452491567158051,
   0.7699485059319755,
   0.732557663992036,
   0.469771420725848,
   -0.4905917705259943,
   0.5476881134115056,
   0.537066638630763,
   1.35226485793486,
   -1.1432775070447276,
   1.3584362170273958,
   0.6846499122236052,
   0.3584087858518038,
   1.9322514785709617,
   0.13105871545694384,
   0.056280082656202275,
   -0.20176265769793295,
   -0.5237587670512311,
   0.3610273608509728,
   0.046057824740320004,
   -1.6974828068869838,
   1.0357429969785459,
   0.3776379055473789,
   -0.03717308229909662,
   0.7914924135653536,
   -0.08853334403049817,
   1.4126557020870578,
   -0.6983188444406783,
   -1.6139518649972004,
   0.5840343068766389,
   0.9830665160343113,
   0.45171889379380836,
   -0.22993029871347048,
   0.9303538942953028,
   -1.3633542126949907,
   0.8876641943356618,
   -0.758501681760633,
   1.77353346175545,
   0.27254172108138874,
   -0.9149716826901733,
   0.8412858468405658,
   -1.5202260298463441,
   -0.35936101311759805,
   -2.2319017701218415,
   -0.08433871289802396,
   -0.4689953835857471,
   -0.4424981353765159,
   -0.1442142475831553,
   -0.571433010359698,
   -0.14873396218251927,
   -2.211610838851816,
   0.2721548976373404,
   2.043393852733608,
   0.5473815193702498,
   1.7265092115569582,
   0.4259614643616755,
   -0.48070302908358364,
   1.553177141408164,
   0.5893389437935774,
   0.19267464821477473,
   0.7183923751019741,
   -1.2571153780678692,
   -0.17612947094525103,
   0.8362694063120953,
   -1.2518448430999198,
   0.6430814715315875,
   2.029749731183119,
   0.04712487378594909,
   -0.02210538259073442,
   0.04577827851815155,
   -0.9092374262061195,
   2.0428387066435794,
   0.037346702874577996,
   -0.30743608492161345,
   0.281982948943261,
   -0.4347512787637422,
   2.0120992425608173,
   0.06189469210769498,
   0.22202910301542123,
   0.8511637411766326,
   1.4680909397796782,
   -0.90513583655707,
   -0.3871095110906362,
   -0.2952738768985034,
   -0.07400682970050632,
   -0.5739290072549705,
   0.14045441804584566,
   1.5252326079850478,
   -2.5739228325306853,
   -0.005215209263931653,
   0.2512729734980155,
   0.8043181419713832,
   -0.021277243931157375,
   0.9859072904463559,
   -0.6536286718267393,
   0.7230836015079329,
   0.10466621343479933,
   -1.7870885419465325,
   -0.47642618065296805,
   0.3293136008549721,
   -0.8688892849478007,
   -0.24105757083119528,
   1.2848728454136182,
   0.8446549201621683,
   0.12097952255922945,
   -0.6639970777372557,
   1.2623282105918348,
   1.0501937032079107,
   0.6918224323813701,
   1.117089135788982,
   0.5140125467784933,
   1.1768854373378925,
   -2.630649319042392,
   -1.3607784707174746,
   -0.8862858487114247,
   -0.38913305235443446,
   -0.6279478458108494,
   2.6747680877223874,
   -1.9355986295015,
   -0.2720473615221307,
   0.3514232525966704,
   -1.14099036373625,
   -0.8406857249218406,
   -1.1920870513273962,
   1.1332948703101233,
   0.6287993332765477,
   1.1921482460037098,
   -0.7125117885103507,
   0.08106919686824783,
   -1.3240144650978316,
   0.024365208485945256,
   0.3786480368185449,
   0.22060998122898834,
   0.2807998397001563,
   0.4988120077925766,
   -1.3192646230882934,
   -0.26468984334919365,
   1.1914397060439161,
   0.5852762656761665,
   -0.3250842319992774,
   0.9093937164954887,
   -0.37847806358984465,
   0.039642738678214884,
   -0.7339409784267872,
   0.5216953447203364,
   0.5580020211127774,
   0.13833042151556646,
   1.4728655217074351,
   0.6935148413213517,
   0.3291611813663233,
   1.5342754257738256,
   -0.48026147467740116,
   1.7038990220421957,
   1.1035450580143784,
   -2.82366166110143,
   2.0643876462081723,
   1.6773996040556762,
   -1.2031497689384083,
   1.091611025521089,
   -0.9929540973592363,
   2.1635159356722524,
   0.9454688206735087,
   -1.00713026764303,
   -0.03424370712688147,
   0.3020882476092557,
   0.7125283528551098,
   1.4370845352013486,
   0.29655583219527626,
   -0.3552112437466848,
   -0.3051522420469271,
   0.27250354599121973,
   -0.3186349097741295,
   -0.17975428385714495,
   1.5357584505200197,
   0.011832034211698986,
   0.0760187936755668,
   1.5574206899700154,
   0.3666735766349809,
   1.0199056909654098,
   0.4444587477405329,
   0.6483067284884668,
   2.750922111421747,
   0.09059172960773708,
   -0.06102298178788208,
   0.0009629301069339708,
   0.9307493055042732,
   1.5322576861283286,
   2.0715965692082463,
   0.04469946326846491,
   -0.36156254958768463,
   -0.7844661776797588,
   -0.018705601833691837,
   1.4405940923928033,
   -0.12615424829901833,
   -1.4362404188590037,
   0.8466329584087741,
   -1.3039166871608607,
   1.79236132737057,
   0.8519220892908901,
   -1.1174242566325783,
   0.9432127129422668,
   0.8493611185895733,
   1.2050800635502275,
   0.1575138970752921,
   0.18512868763279045,
   0.18558515461179684,
   -0.7529851071972007,
   -1.1210742728124279,
   0.9078057145343343,
   -0.9576718417025353,
   0.7995030489456335,
   -0.1363000290885145,
   -0.40552924632515247,
   -0.5899783147571367,
   -0.05219458936227484,
   0.16481065561767091,
   -0.1982703545042569,
   -1.022258445437824,
   0.6902770967421281,
   -0.2002639100876779,
   -0.5440932035536027,
   -0.9896448415305961,
   0.669940545267818,
   0.6849694620043076,
   -0.6780594314546337,
   -1.9912630995735074,
   -0.5637792758854706,
   -1.2326622785899293,
   0.28081562260606635,
   -0.7878082545278038,
   0.09619085642357336,
   1.2788159108017005,
   -0.2821281536392333,
   1.3411191711319679,
   0.8158580701097464,
   0.38963002915725226,
   1.9609013303862137,
   -0.09636187773083171,
   1.1434791823297281,
   1.3233185400782035,
   -0.8795955608867697,
   -0.6106317680274248,
   -1.2319824965300323,
   -0.6790801399563515,
   0.5300558682182529,
   -1.1241795897837026,
   -0.47560301418309103,
   -0.999683893597476,
   0.4175501465283851,
   0.29383270158999764,
   -0.45537124139379825,
   0.3063952764147604,
   0.4111798503676539,
   -0.1688748035010923,
   -0.4159216048913167,
   0.6104281319017973,
   0.7677581250286618,
   1.1249491355056616,
   1.3922869798673745,
   -0.21418612010989171,
   -0.031683507503502614,
   1.2824565981801384,
   1.7815144681657813,
   -1.21964209943561,
   0.3886676578971958,
   1.1655837580835204,
   -0.6042856045097538,
   -0.8727318279937645,
   -0.7660654864194711,
   1.2508931510202195,
   -0.6837583311977781,
   0.30291070487024896,
   0.7929996895652659,
   -0.4823367274690991,
   -1.4347679717574202,
   0.22799258331810915,
   0.22433311345326676,
   0.9062615386950221,
   0.8925773620715092,
   1.902222364635576,
   0.9040631662417269,
   0.46372212907981436,
   -0.32972610643192296,
   0.8210194479164418,
   1.0527619228789278,
   -1.0720245921806781,
   0.4233274683845959,
   1.906171669320541,
   0.7694096111269039,
   -0.11570655490301344,
   -0.52737848354917,
   0.26599908090880797,
   0.6821632278797461,
   0.801325224181207,
   0.25411365515781287,
   0.964566414454109,
   0.7565290950340786,
   0.4548995039572938,
   -0.19927527548578122,
   -0.777680838224188,
   -0.9908812522642184,
   -0.9026959466978814,
   -0.054023034832121244,
   -0.4302400950150324,
   -0.479998197245275,
   -0.3433240607093224,
   1.2478735068701858,
   1.333386285061033,
   -0.14336698119478067,
   1.535395695736635,
   -0.6162061384040507,
   -0.9723582122539538,
   1.0273370584233779,
   1.3733984387412699,
   0.4953141748380775,
   -0.8986679895264647,
   0.7522779913404064,
   1.0307161111723107,
   0.2821520308175878,
   0.07449306057421873,
   0.8235016842312523,
   0.08894601130682761,
   0.2608034464472381,
   1.9219466939333916,
   -0.19285192127221598,
   -0.29603042622067194,
   -0.21524758406860825,
   0.40876600778805605,
   1.7609637910182097,
   1.1347837145725073,
   -0.7454425572476063,
   -0.9985568570758683,
   -0.6960974095927709,
   -0.4681251258984597,
   0.5266132473904873,
   1.3096831333699088,
   0.386867265378628,
   -0.3742727755701697,
   -1.2068476953930702,
   -0.1259946587361582,
   1.7416441331612578,
   2.5247198362085843,
   2.152149094921472,
   0.580770030841159,
   1.948293965811281,
   -0.1532608023379368,
   -0.3305309809756666,
   -0.8765166290358712,
   -1.3224661860617213,
   -0.3305070534064561,
   0.2648272953490184,
   -2.085599524729373,
   -0.45201162041294396,
   -0.4141931519703862,
   -0.9988426495881643,
   0.6827120951774975,
   -1.5329866390154685,
   -0.4447112563077898,
   -0.8430633880458147,
   1.4278552623961063,
   0.3280828900796196,
   0.5680062851552026,
   1.4707479418530292,
   -1.1876519201928892,
   -0.9240891759555038,
   0.7166580987869439,
   0.14038751578288222,
   0.3806251836244002,
   -0.174739543960465,
   -0.03479055715400723,
   1.1002624240098475,
   -2.5570570937527934,
   1.1611618268701762,
   0.32656463901402766,
   -0.6573692488226316,
   -2.4410327248637467,
   0.5566056330328717,
   0.38355841606276264,
   -1.69074657358121,
   0.13787666564209478,
   1.2720250500613,
   0.7058641535487287,
   0.11003921956018477,
   -0.9746424463553857,
   -0.9227647290229077,
   0.2113214747270344,
   -2.2544161319351352,
   -0.47697330050330006,
   0.5534812945220065,
   1.3481133748972474,
   -0.5467980215876935,
   -0.16484829038204116,
   -1.1467532928817474,
   0.14661487327055872,
   -0.01543657149559493,
   -0.9005974914987963,
   0.23644347846666264,
   -0.7043462216577805,
   0.9051176639311533,
   0.8373187001255185,
   0.30257979967111137,
   0.6821985590009256,
   -1.0026433762419042,
   -0.8579003937578115,
   -2.246969870157319,
   -0.7839411851523517,
   -0.1831888480391543,
   0.17025865523648523,
   -0.03342543785684645,
   1.2758947826906417,
   -1.1118459863641605,
   0.9196273986988335,
   1.0503346927537522,
   0.7309619824947419,
   0.04887886021226262,
   1.011644474513032,
   -0.951220196199424,
   2.326209352123023,
   1.0795864672858972,
   1.467140169703556,
   0.18103824107942024,
   -0.07967196692817924,
   1.0999634967207497,
   -0.4280429059867754,
   -0.4105752995830546,
   -0.07385757386341336,
   1.0078105275657419,
   -0.5193359425931658,
   0.6176605905741557,
   0.5176503938977061,
   0.6858677792846325,
   -2.942408044838666,
   0.5244248698780342,
   -1.0569046083094291,
   1.408128326575181,
   1.1847613358588849,
   0.864591716053327,
   0.1674481847779423,
   2.5735753566445716,
   1.7210213508136367,
   1.054055971812925,
   2.6436857524672965,
   -1.2366125526853327,
   -0.8662489207263874,
   -0.34504591910690463,
   -0.13449281387142878,
   0.4773868579130896,
   0.025673634656749024,
   0.5630754709402521,
   0.01475552845677924,
   1.1389558140105693,
   0.3420432906131711,
   0.20417742047291104,
   0.45215718907378266,
   -0.7508074347198257,
   0.8511816311309693,
   1.842666358084088,
   1.093538416137212,
   1.9460751047261982,
   0.5908650060821711,
   -0.7759254322980285,
   -0.5869348114566911,
   0.14787098678661123,
   -0.7211825783302364,
   0.5219317160899126,
   -0.586215763984859,
   1.0781591662374912,
   1.461581578346849,
   0.5733695746277703,
   -1.806765519437893,
   2.67259072393253,
   0.45340698494595744,
   -0.209736687416006,
   1.318937428452894,
   -1.910265652232557,
   -1.777236866347361,
   1.2093125207047566,
   -0.15131868908382215,
   1.3683162432241782,
   -0.3237262513668821,
   0.025776806413960705,
   -0.28616486796664253,
   -0.9569281168884898,
   -0.5563163795607243,
   -1.4393854836756441,
   0.6078431468128297,
   0.8435776435722371,
   -0.41832620199370185,
   -0.5373342635632277,
   1.0344520690837111,
   -0.5963911606393673,
   1.10132619702596,
   -0.17731014235261197,
   0.33976049649633433,
   1.510826677966567,
   -0.03899897884669802,
   -0.30282549127462827,
   0.16857939550371814,
   -0.7673573400281931,
   -0.10663429848381598,
   0.10348490220277919,
   0.32535595186063965,
   0.6479429319064643,
   0.786796967093353,
   -0.4425270973864516,
   1.335903777965266,
   0.8018686391708388,
   -0.7823647438708898,
   0.6998721501755302,
   -0.21543621925465967,
   0.28934629418727903,
   0.8289293440538473,
   0.456881406442059,
   0.06442879853995215,
   0.02605436330066064,
   0.143104500900781,
   0.18304366966258526,
   -0.49730207555820977,
   1.7705497665794274,
   0.14005516282258954,
   0.04030275710817527,
   0.5017591554566356,
   2.0279040287448913,
   1.4030517669023266,
   0.06386778945672207,
   0.6532545794139373,
   -1.7085536319572212,
   0.025828529669157708,
   -0.7039193857486508,
   0.6312467370059227,
   2.411942942118623,
   -0.9773818486536049,
   1.4672403060740429,
   -1.4389877771141917,
   -0.21625231401923592,
   -0.3883341154758167,
   0.8218785814431591,
   0.15445343850510937,
   1.3239589799188127,
   -0.1082771418411383,
   0.38198388719501364,
   -0.0653127684497299,
   -0.9726940708331073,
   1.07555209530239,
   -0.6306470546803467,
   1.4502750631582777,
   -0.41589151026517923,
   0.07687396244607517,
   -0.1606990637153315,
   -0.18365427275462498,
   2.612554510616006,
   1.301217699065163,
   0.6112190864822411,
   -1.0246436584900003,
   -0.9402196848564983,
   0.9519262982121178,
   -1.3486595532364032,
   0.10883607983140722,
   0.824217304179439,
   -0.7120304503690876,
   -0.3091095983668408,
   -0.317672424259701,
   -1.1332087231219625,
   0.6085628194534833,
   0.3780618535537528,
   -0.13419040138844476,
   0.9827111082764945,
   0.27415302056520374,
   0.8695524827567305,
   -0.3734440856836274,
   0.40915206981250923,
   0.6578333646142217,
   -0.6794797359499695,
   -1.748469772239016,
   -0.5390496158842234,
   1.227254397876147,
   0.1187145416377785,
   -0.07994485823333364,
   1.5094013103571928,
   1.5710831985006601,
   1.242183133465182,
   -0.46379195876979074,
   0.11950477673051266,
   0.4225062828991786,
   1.8904560496297065,
   2.370882647575429,
   -0.4625550342826903,
   -1.0118377177795927,
   -0.768043517683685,
   1.8003107971708676,
   -0.4892487523988418,
   1.1666901515407455,
   -0.2164885835688575,
   -0.07540225669147194,
   -1.310130624223431,
   -1.0569078435318842,
   0.6443125379644368,
   -0.207541166557946,
   0.6906339454266489,
   -0.20534399090972152,
   -1.281879731291832,
   0.11583508561800347,
   -0.9885509923750401,
   -0.4417876579418649,
   -1.1023811564305859,
   1.3335544999933624,
   1.1886869181289017,
   0.08235544709168789,
   0.9125034942317152,
   0.6995103820238016,
   0.8343311441349477,
   0.6578313456813916,
   -0.7934046707062493,
   -0.8626661680569008,
   -0.43811978059787404,
   -0.5676229874828643,
   -0.3587887842193717,
   0.7225138923289314,
   0.520205403484871,
   -0.24714891963322794,
   -0.11447897641129756,
   0.4234109297001225,
   -0.2203254796965865,
   0.1254434533075761,
   -1.3586876246073336,
   -0.02281292142716793,
   -0.03077256665495309,
   0.6921847487622554,
   -0.310933808308001,
   0.7865382590720251,
   1.6655370321079468,
   -1.2565486773732817,
   -0.31533535612422836,
   1.4540370946811727,
   -0.6294927315200182,
   0.3642574942951609,
   0.7635597114525364,
   1.5811162325240875,
   -0.8555817678238284,
   -2.1708510792398727,
   -0.9874454477925163,
   -1.0346211982885414,
   -1.1519627236382808,
   0.2986161339621615,
   0.7720939157058541,
   0.35247108594556376,
   1.7480618847820755,
   -0.8533076652268174,
   0.6490814928093707,
   -0.6124334895996939,
   0.8128382871355677,
   -0.01037690353685181,
   -0.547837091079306,
   -0.5290222691585327,
   -1.3538593795555223,
   -0.17179807872187286,
   -1.7164566793791527,
   -0.3135691928780995,
   -0.1755409631208984,
   -0.503591256022486,
   0.6933157565993472,
   -0.006950125375199375,
   1.4765118649146176,
   1.8004091020062956,
   0.5995258149268559,
   -0.5713281714951556,
   0.022012310388607466,
   0.5903241474422865,
   -0.7770341724453201,
   -1.0829370245070995,
   0.5991749092576266,
   -1.1766191149142626,
   0.5339894334912048,
   0.5704653372356646,
   1.2622935399671593,
   1.1330585110365408,
   -0.12145936591396689,
   -0.9780732141485631,
   -1.8092178638993772,
   1.1707765215625188,
   -0.28751208819022017,
   1.1709013450201087,
   1.1535745064409622,
   -0.17484228917070005,
   -0.10419554979928017,
   -1.1313992416698064,
   -0.7915105840182813,
   0.33436809551809615,
   0.4069461151079181,
   0.4225579306621389,
   1.8603705151039454,
   -1.2396882530507316,
   -0.6881827496915628,
   0.022886922530289545,
   -1.108910281088791,
   -0.8928698850490044,
   -2.1575346403370532,
   0.2111261875210505,
   0.0666446765251024,
   -0.01249740544371895,
   0.4388036599354332,
   0.56857251266225,
   0.3861755912822079,
   0.45349025434154966,
   0.3983204790181835,
   -0.6481223851700175,
   0.7937144504764735,
   -0.7429850552732338,
   0.022512909757188445,
   -0.5108333795984309,
   -1.5163396753776524,
   0.9551328367050895,
   1.8507795103200075,
   -0.7233713387032212,
   -0.9900630389270881,
   0.0038405371123276587,
   1.2160767817264806,
   0.9770316700042362,
   -0.5212264435443297,
   2.270979632597656,
   0.21137732209266885,
   1.4787937209344815,
   -0.11777589226990975,
   -0.13595269580797717,
   0.6891370194615988,
   -0.3823712359834527,
   -1.9209973939684386,
   0.6580855637594818,
   0.07529246290477816,
   0.9747696528479987,
   -0.24922837242263118,
   0.5213126000361736,
   -0.07459671875562067,
   -0.2284625505867439,
   -0.6973712972292951,
   -0.19138435020975147,
   0.007325714482047279,
   -0.3955545521317899,
   -0.6000760422570623,
   -0.1997048713223088,
   0.3816193514843231,
   -0.595328238303067,
   0.33857773996360313,
   0.6901107435300391,
   1.857164311860087,
   -0.7528617823202105,
   0.380128855576303,
   -0.6627010816782981,
   -0.9138685165019402,
   -0.12202060559259922,
   -0.4491498618054077,
   0.5245818893109988,
   -0.19237427734834622,
   2.2182867184452597,
   0.5688175444503493,
   1.6296542037202046,
   0.08695383112295157,
   -1.0725161307266775,
   -0.5468795219438335,
   2.525017615000827,
   0.24203474003320397,
   0.5067976195098942,
   -0.34083411454589685,
   -0.5290913136740999,
   -0.8631221853950939,
   1.2314569070242083,
   -0.14870590602571998,
   -0.8282497263619767,
   1.1072914558488889,
   0.7347841930461952,
   0.9108436149132672,
   0.24589785131599648,
   0.8413073827139835,
   -0.31639342843533347,
   -2.274756008198565,
   1.1578220488182387,
   -0.362149031069976,
   -0.18159350020817025,
   -0.2125243581574363,
   0.49448171915703903,
   0.15161409818209437,
   0.4791654841911733,
   -2.614204242042401,
   -1.03745635593198,
   -1.57811951560901,
   -0.403900149766383,
   -0.6936970269634135,
   0.3820647316576334,
   0.9740590865531749,
   -0.663752686926518,
   0.9205007322864689,
   0.5332983896979536,
   1.6956788613592033,
   -0.7328828841426044,
   0.6782867912387618,
   1.2662598338068045,
   -0.7000242961080888,
   0.3225610581109526,
   -0.5468101739041782,
   -0.9426714250069764,
   -1.6098779768086584,
   0.23432570527347446,
   1.57439485275385,
   -1.4708222303630432,
   -0.5485055693468543,
   -0.2906065602876291,
   1.219650270900884,
   0.057354703699196014,
   -0.701147089347581,
   -0.3105407796866657,
   0.4689326630320385,
   -2.5317191251998383,
   0.6859215643647132,
   -0.8468896156429824,
   0.263823460269028,
   1.3120392689351152,
   0.5529953730039145,
   0.9044710708775979,
   0.45276711402728953,
   0.10649107576537682,
   -0.3470901083902012,
   0.27550771817548836,
   0.1048376359689046,
   -1.6928738595750952,
   0.03721486823668246,
   -1.3245314382024815,
   -0.9630390143066245,
   0.49411506281428935,
   -0.6707710809821205,
   0.31690508697116987,
   -1.8066221813775492,
   0.9727697810966566,
   -0.3964131197685329,
   -0.1858123350283151,
   0.25127445875579907,
   0.6284577578387707,
   -0.547910233067987,
   1.6549267407623853,
   0.5027902252989622,
   -2.465744739369285,
   0.10282427026942736,
   0.3441240946852747,
   2.342835009683961,
   0.19316707319574045,
   -0.05038706744174243,
   -0.5144755699639203,
   -0.09953915952236542,
   0.6275447771838867,
   -0.36908352570457015,
   1.2901274033502772,
   2.0961229236445464,
   0.17540244986298525,
   -1.019731502972812,
   -1.5347321539755918,
   -1.4369005730416378,
   0.14595493911567758,
   -0.051244345728657215,
   -1.3055106400208976,
   -0.15321141435441155,
   0.4814929437155364,
   2.1284648519854557,
   0.2955174374245578,
   -0.11481066524428235,
   -0.6797225834279983,
   0.0664041427621849,
   0.802811006188936,
   -0.8429994883324687,
   -1.7116549626081268,
   -0.7312068427555668,
   -0.45250436136425465,
   0.8182894614846148,
   1.2685301506883215,
   0.3661220226654109,
   1.3968409296598954,
   1.7537645783419145,
   -0.6051201147686719,
   2.1278172683536796,
   -0.0674592754780039,
   -0.5938555296963889,
   -1.6215616376127489,
   -0.7130706259979829,
   -0.11505600293186358,
   -0.6575894192615308,
   -0.09029540457730634,
   -0.9792525134666832,
   -0.664628710980734,
   -1.0565058597066912,
   -0.5810858017313418,
   1.8374779773369037,
   0.9786029557514506,
   -0.6176334180600236,
   -1.6659525292016326,
   -0.41043690584539133,
   0.4131872841056019,
   1.951849475752193,
   0.7233334275634126,
   -0.32149966694614296,
   -0.6561116772833977,
   -1.5512572654905916,
   0.4123881797478669,
   1.3011251668764303,
   -0.9293928122180843,
   -0.28926352054805105,
   -0.8556254334184963,
   -0.6449573207185018,
   1.865937617745631,
   -0.6680878242204674,
   0.8674588827437854,
   1.3138207706631917,
   0.2796475662454123,
   0.13582180321896767,
   -0.8913557572692128,
   -0.9969230045273246,
   0.20107487909658964,
   0.13742370852087848,
   0.5172733027430654,
   0.8294424379332469,
   1.7250392776806667,
   0.19336011380179485,
   -0.220709504737293,
   -0.33145389890609867,
   1.029175036103915,
   2.8270913453344613,
   -0.6829142600918241,
   -0.3384899838231953,
   -1.1629622331269445,
   -0.3277294714747614,
   -2.6042343349217543,
   -0.4298960040504138,
   1.960392772398929,
   0.8404616657440527,
   -0.5142587345457437,
   -0.5296155436251405,
   -0.8766920446326566,
   0.9340510664677454,
   0.03761268597728165,
   -0.39850289789622556,
   0.1476747547820513,
   0.1126469559546916,
   0.18344712220316844,
   0.2439384415902519,
   0.3045296839557933,
   1.8921812816186898,
   1.6869054321161334,
   -1.5888368767618744,
   0.9921307087806921,
   -0.35277876362389815,
   0.5880152242996589,
   0.65399659516082,
   1.1465366209228667,
   0.06031396695833391,
   0.7534373785904538,
   -0.4650680158336711,
   0.4700521223775007,
   -0.047113715617291725,
   -0.8066909576968213,
   0.05546460945449877,
   1.914277409911642,
   0.15465000229650253,
   -0.9586370543493702,
   -1.8760318444094444,
   0.14697054694196388,
   1.6449394230918042,
   0.47384722717896305,
   0.1481909185930088,
   -0.46165034956267953,
   -0.7770224426558223,
   -1.4510066140555795,
   1.0968427806901144,
   0.2536744761945016,
   -0.6978754695922958,
   0.44675434852317447,
   1.713164022751682,
   1.157422994959143,
   -0.22905677112572673,
   1.0614714084735126,
   -0.5759873842283468,
   0.2748814448092044,
   -0.8547173624330808,
   -1.442389141066484,
   0.39346412040422,
   0.013987594349890144,
   -0.9521111638393099,
   -1.0751414236696804,
   0.12530080860155224,
   -0.8715921728074129,
   -0.4387142212475588,
   0.4793460281546188,
   0.691915620545892,
   0.0032896688208947844,
   -0.3542016472493248,
   -0.8300263629886135,
   0.5026873266583493,
   -0.2600657355491043,
   0.7468092359015643,
   -0.5240981090903712,
   0.4025605169436471,
   0.18413400074119274,
   1.5502930207515124,
   0.9958851559546125,
   0.5109454432022096,
   -0.10923100377094191,
   -0.6627616312561323,
   -0.5718182904663197,
   0.7578065600928771,
   0.9570044614975165,
   -0.1343838595156271,
   -0.19980795160596088,
   -0.4773675463303875,
   0.004927824357234804,
   -0.0125787247076275,
   -0.7431230151947963,
   -0.38629080466733356,
   -1.633696401626591,
   -0.3035932398835802,
   -0.3495307211044159,
   -0.2842265132257371,
   0.9775718585056674,
   2.3937856238826623,
   1.3562603306838732,
   -0.5360315424693861,
   1.0006140248538846,
   -2.22133467038575,
   2.096266548633073,
   -2.2268409063352337,
   1.6278537561229378,
   1.3784824482492057,
   0.5739910070576133,
   -0.8051269907488302,
   1.014697173915758,
   0.6692095892495556,
   1.295430202095424,
   0.7309420132140872,
   1.7114611363264849,
   -0.7850428160453116,
   0.31739966180908735,
   0.68452653829078,
   1.0636044107591485,
   0.1481553663403358,
   0.6760889306830193,
   0.8498750771534335,
   -0.4172738467438339,
   -0.15530246573716097,
   -0.9989576358680576,
   0.8370619409842218,
   -0.053576494942448205,
   -2.2765229945201053,
   0.07741915074759317,
   0.8119377102289138,
   1.3161891197333504,
   0.0999901459745209,
   -0.7608593646489911,
   1.960230676141511,
   1.0104105643219943,
   0.03004307891202265,
   1.0672370189556846,
   1.0301841670151082,
   -0.4264207489534329,
   1.102060693072107,
   0.2450113381724192,
   -0.6667509863382772,
   -1.0691875763790732,
   0.9887421945594664,
   0.4237247515646142,
   -0.10669462920960741,
   -0.054176729184999876,
   0.26193492324310447,
   -0.8421125067819333,
   -1.3810600246256264,
   1.6083553617457593,
   -0.6254717580685502,
   0.2863310515676105,
   0.13883486894797825,
   -0.28154276922538113,
   1.4588818960860592,
   2.486941080117002,
   -0.81248124463113,
   0.13813363279173602,
   -0.7010864476547064,
   -0.0635226772752845,
   0.9272444795769534,
   0.984600371767208,
   0.4780611076530863,
   0.7047506304100849,
   -0.49461994001790793,
   -0.06716395154104621,
   2.3203359565684654,
   1.6292142770092792,
   -0.9655790869270285,
   -0.29656646515910584,
   -0.4683011535531537,
   -1.1979822033673757,
   0.3812327301657821,
   -0.7043323108343318,
   0.4487666917259494,
   0.4716242996216513,
   -1.8049395984417658,
   0.1872942069559246,
   -0.5964866109335538,
   0.1068793579997477,
   0.14500503791808997,
   1.011016312710472,
   -0.028979076978783404,
   0.450549250441812,
   -1.1119534692559392,
   -0.07208483416374455,
   1.0743176339756504,
   0.23482409576655905,
   1.6513639583703188,
   0.7185177986146241,
   1.1980990698921423,
   0.3084220911074065,
   0.17847572839747083,
   1.064277053757876,
   -0.21795998798543192,
   -0.28690491458533973,
   1.0699140342426028,
   -0.34283625847639093,
   -2.1910755112248483,
   -0.7606014367868617,
   0.7689296232172113,
   -0.5542715770934367,
   -0.15218445582330337,
   0.5865546613290898,
   0.022763382399680978,
   -0.025382473006689138,
   -1.8812909760514511,
   0.7441016784002669,
   -0.4797042397880206,
   -0.23489958299396269,
   -0.1523422161224585,
   -0.42331219478321047,
   -1.1728385726625692,
   -1.419523495014667,
   -0.23919757484029933,
   0.23641894894659796,
   0.5542079206284117,
   -0.21471118543495596,
   -0.22120162038630084,
   -0.658530163799305,
   0.549055790283572,
   -0.6529903679262833,
   -0.7516992827845504,
   -0.6293385125632702,
   -0.4081732827670421,
   0.2882625077056152,
   -0.8177024652056847,
   -1.1667544568124695,
   1.3088881406206685,
   0.7674330645305998,
   -2.8866187734517723,
   0.5951185288850114,
   -1.7339839734467712,
   -0.05422082010987259,
   -1.6058617933292454,
   0.8403575468586846,
   0.4200669090396052,
   -0.0037565389542823647,
   -1.0528187198534402,
   -3.1334602175343074,
   -1.996063862487885,
   -0.56655523202736,
   0.7730330519297623,
   1.3372499755140408,
   1.3795484043408606,
   0.49661233020314294,
   0.5291584492306468,
   -0.14420277407752777,
   0.2138685205659422,
   -0.19951953575561976,
   2.549804197080991,
   2.1218163172530056,
   0.8316448112249942,
   0.1789654397031151,
   0.41535821613136154,
   -0.39405407154059563,
   -0.06327518256847804,
   0.49633694552482754,
   -0.984235889940487,
   -0.1339114513885007,
   0.6447714296267907,
   0.7358604081136774,
   -0.37196686642029,
   1.0784604628327077,
   -0.1491110055649206,
   0.8464827409772709,
   1.2324145747661508,
   0.0031580121164376243,
   -0.9360829029090573,
   -0.31971056307897644,
   1.3821350775351648,
   0.5329370218525447,
   0.4037504824399388,
   -0.8154468820031052,
   0.06891787964035873,
   -0.14087429113920188,
   -1.107483328426222,
   0.188252328265416,
   -1.6250883039284774,
   -0.5058871233594636,
   -0.2136102499646846,
   -0.33434569477574555,
   -1.0844481987710222,
   0.15610512929380968,
   0.6343451829314221,
   1.5801525412381092,
   -1.8171920875039478,
   -0.3135857964330105,
   -1.0198222210967085,
   -1.3686411456600516,
   1.289263682086947,
   -0.1444013364228522,
   0.1148801418953526,
   -0.24534617085648502,
   -0.4271435629792524,
   -0.21237686306071832,
   0.31706839555475524,
   -0.8440355887063772,
   -0.6071011804683449,
   -0.7532015299101913,
   0.8226879811645041,
   -0.9228304189796399,
   -0.0358128353745988,
   -0.8895267826385453,
   0.9851211531320954,
   0.844646098002519,
   0.021633166736306154,
   -0.44800124174151584,
   -0.5158200848871969,
   0.3888281477589644,
   -0.6925714967964839,
   0.7167881275392829,
   1.899605018272511,
   0.6331610988709141,
   -2.254574198810275,
   0.1555359608084878,
   -1.20957776193829,
   0.45148916175734727,
   -0.9584487008601096,
   -0.6348194160381461,
   2.199505614748949,
   -0.7637411171410556,
   2.2887733477061265,
   -0.11078006084498576,
   2.053304110673316,
   -0.0029807358162885823,
   -0.17827731065684302,
   0.7469795521842459,
   -0.31808002759456044,
   0.8954897510848356,
   -1.8385298857732402,
   0.19994505862482181,
   -0.1532787924847611,
   0.7234221968566286,
   0.23322286126010963,
   0.555377051688205,
   1.1137152080882,
   -0.2565376029480264,
   0.7932600053554668,
   -0.34356402451292944,
   1.0176889482952836,
   -1.0076017104865767,
   0.06741661569334398,
   1.790810797058242,
   0.36448762271587953,
   0.706877582379967,
   0.15949985579068857,
   0.13702179730139996,
   -0.4299742178377531,
   2.3186584614137855,
   -0.7602409714244702,
   1.2299172137948642,
   -0.678512845704084,
   1.4302368012940194,
   -0.26247424799512864,
   -0.6632156523022608,
   0.8784405780756444,
   -1.3585026665697177,
   2.358650006354073,
   0.7375983550899406,
   -0.9061138410764362,
   -1.175414346760269,
   -0.4403441129729749,
   -1.414227760134521,
   -0.7298830973850555,
   -0.6355653358691273,
   -0.1772949401159701,
   0.5281005180738756,
   0.2135242428196377,
   1.250434519238769,
   -0.7902714604679708,
   0.055813740110598,
   -0.6760083613944128,
   -0.13038892688753506,
   2.9496045259228585,
   -0.0570496151681201,
   0.7279179282016498,
   0.17144405892187906,
   -0.47268116437263324,
   0.1490065236110469,
   -0.6241873649413145,
   -0.2892278748772589,
   0.6360580955965808,
   0.725521705418743,
   0.7735382674122777,
   -0.6009215705015362,
   0.32722174897986267,
   0.44900892351040156,
   -1.729220957007028,
   -1.1993984816926837,
   -0.48113476044508735,
   1.2468356189224705,
   -1.121503231782036,
   -0.06294056334259715,
   0.448980271158658,
   0.8225447484250605,
   0.32836624930705127,
   -0.10529054763048451,
   -0.5915946132180514,
   0.015020347088836043,
   0.2778596720883262,
   1.1990780529094673,
   0.8637328052026243,
   -0.5910423314330039,
   0.2272627857929275,
   0.2805790256685818,
   1.150863128929203,
   1.057731278368599,
   1.1446446137484947,
   0.670126707733647,
   -0.09593690353865152,
   -1.2105667263966295,
   -0.6812498676809775,
   -1.1530293913818268,
   -0.391955406116466,
   0.059224432933799316,
   0.8263778185087264,
   -1.5257144989067262,
   0.18652616485674936,
   -1.3322426087436419,
   0.9892853484678075,
   0.2943826405656112,
   -0.025889012350351764,
   -0.837347560774585,
   1.54013483710572,
   -0.4084200943025149,
   1.6309053825125357,
   1.7206845700220206,
   0.7838180768364488,
   -0.019641092932760954,
   0.2505998223161067,
   1.3543404126784975,
   0.7863698863235845,
   0.861597329674533,
   0.9234858387081538,
   -0.8070415826544607,
   -1.584987641437179,
   0.3142190789172093,
   0.5682166249407012,
   -0.8204601130210526,
   0.9528840425129053,
   -0.969165359543702,
   -1.434658480264051,
   -0.9103995035395634,
   0.1638320446058582,
   -0.7772615907519232,
   -1.3025528247728737,
   -0.5670840526894636,
   -1.480243238237145,
   0.1033747145090283,
   1.2916267985241174,
   -0.2584837214970483,
   2.7159894381172607,
   2.6184873593079727,
   0.5024594425723639,
   1.6358829683559866,
   2.1176379486746697,
   0.8758327550063851,
   0.9723094449055821,
   0.9515251685743109,
   -1.1019781151011137,
   1.2298239180758384,
   -0.2707824667712054,
   -0.3604800455556662,
   -2.0902705052453396,
   1.8552732995153982,
   -1.895921130991484,
   -0.4648310355164238,
   -1.3432724232379887,
   -0.17518777363353896,
   -0.6589683484169736,
   1.2398837731884658,
   2.15614920525768,
   -0.8003306611494737,
   1.4845234224668595,
   0.19468053668650373,
   -0.035236942616601305,
   -0.9786321445557183,
   -0.7083618084065584,
   2.021044285635065,
   1.150397887288622,
   0.6782020069558031,
   0.2691195653487229,
   -0.571598613666016,
   0.6235289383337514,
   1.7201427649796932,
   0.5928477627250442,
   2.1341439072674433,
   0.3992329615823434,
   0.9235899636897974,
   -1.052974827933099,
   -0.7780927046823664,
   -0.8274263986513006,
   -0.9512731649851252,
   -1.2026411994189783,
   1.0354678122461585,
   0.16081272131466134,
   -0.38996390104728973,
   0.41449916847039625,
   0.9411576816682575,
   -0.5253191586346804,
   1.903059664290729,
   1.3212082597762433,
   1.0034357715559765,
   0.3995687055837434,
   0.08917830475498927,
   1.7000074209804064,
   -0.789075358716513,
   0.8413965792848058,
   1.0547721389440239,
   1.1199141611884909,
   0.3307085022698618,
   -0.9920428194977456,
   -0.30693640818235807,
   1.110541854993239,
   -0.24834776438315184,
   -1.5044712233938193,
   0.6051102094862216,
   -0.43338493607037953,
   0.2265455444298565,
   -0.15605046524798574,
   0.17170137171826205,
   -0.8375517310619465,
   0.8468714190376893,
   -0.42380382140075795,
   -0.15623367830179788,
   -0.9239369756841458,
   0.6573380506734257,
   0.06330597058535213,
   -0.31270561451384815,
   1.0257845083237787,
   2.105794587561196,
   -0.4469915069551828,
   -0.9009575602520865,
   0.5502183504347996,
   -1.4781439984014335,
   -0.20460737770315188,
   0.40904235874742584,
   -0.7045480426861469,
   0.005748067850021165,
   1.5959260082222577,
   1.7433183854364533,
   0.3761369228025647,
   3.0452681318762584,
   -0.6667621046444323,
   -0.15748385806711862,
   0.07429931918162543,
   0.6753862999752245,
   -0.49684297700499175,
   -0.5692312874518436,
   -2.4411071648794507,
   -0.4069959790708748,
   0.3801667520529568,
   2.4010006197553357,
   0.5483686958594027,
   0.7711710692331594,
   0.666041175820229,
   1.3945035423203347,
   -0.13132888561695463,
   0.7510934357334882,
   2.1389391248962286,
   0.26106962905253744,
   -0.7456349957462047,
   -0.30258034828404295,
   0.5437566434721196,
   -0.037384863886711014,
   -0.8299454384002591,
   -0.22445967300016698,
   -0.9537022853728895,
   -0.3391706714291455,
   -0.7755042972134513,
   1.7149020878510726,
   -0.2191897265195702,
   0.31542996162982506,
   -2.8211248119841534,
   0.260980702032124,
   0.843172040012006,
   0.4070830875731442,
   0.5105359938234089,
   1.501689458569958,
   -0.11380910263985454,
   0.3766070948561065,
   0.8179346894233315,
   1.8489038011451608,
   0.9483323393713553,
   1.7579828681984466,
   0.45922024826862523,
   0.06518512093417136,
   -1.4181060528697205,
   0.8675762300852541,
   -0.14633968009573955,
   0.9511692287870233,
   -0.8579220118550748,
   -0.9958564886992235,
   -0.458635448384409,
   -0.9478227687935128,
   -0.9691917281135647,
   0.4689576961468248,
   1.1587540785415649,
   -0.8005531114538927,
   -1.3416295758497154,
   1.5415716502313546,
   -1.0983836409237617,
   0.039007922266544634,
   0.6066506300187798,
   -0.8257727516188625,
   -0.6371064699467958,
   -2.101815773384146,
   -1.5594108597231413,
   0.1797857576255124,
   -0.012872759850908529,
   0.3954200111293193,
   -2.062709806653444,
   -1.4110986706618582,
   0.08738546517406733,
   2.0190215375769753,
   0.7045173611561909,
   -0.927750649588514,
   -0.009025285511858272,
   -0.8286758261777922,
   -0.9668833993507364,
   0.48098530050587335,
   0.406448045020548,
   1.5997828310174478,
   0.40691009207798257,
   0.9817583236233692,
   0.7494498276448092,
   1.0067339976472303,
   0.8179884638620052,
   0.73848332121119,
   0.15444859333426475,
   0.42590893399444635,
   -0.3127558944702699,
   -0.3002867906910272,
   0.9914140022453262,
   -1.0547601704297584,
   0.5079737232153647,
   0.7283521812254584,
   1.118060308235282,
   0.4057466885972426,
   0.015135955307274584,
   -0.021748682630412425,
   -0.46071190566623715,
   0.5232949996041353,
   -0.4718931123763857,
   -0.43682582297916495,
   -0.4831110737818321,
   -0.9002695880276823,
   0.8694503546503626,
   -1.2508641247449999,
   0.6147932801820447,
   -1.0463718111925626,
   1.7379141804712293,
   1.1920520476101182,
   -0.32773191177964994,
   0.6391775957158146,
   -0.23234151198196445,
   0.032741384092076026,
   -0.2238166197697631,
   0.1281537063640118,
   0.047503025338048975,
   0.30108539472820234,
   0.5432883483436328,
   -0.2569556646261418,
   0.8385726138065165,
   -0.7757269280549902,
   -0.42487011624064597,
   2.221929314571325,
   -2.0065472229265455,
   -0.5435293559678988,
   0.44155373635184203,
   -0.9978788964830763,
   0.5785490433515733,
   1.353138386544817,
   0.7633257103345317,
   -0.6948655890032447,
   -1.2437002020067418,
   0.2990612869221123,
   0.27167130932961636,
   -0.21919169795302013,
   0.9263067464478913,
   1.4190306296771316,
   -0.23569156028970692,
   -1.9041332382928524,
   0.4676873737813701,
   0.8854444220708044,
   -2.6510038100810527,
   -0.6681834275312388,
   -0.19529388894562388,
   0.7289616923922649,
   0.9772130843658345,
   -0.33502755140195706,
   1.3574376691344938,
   -2.3509567510301954,
   0.13949567357356846,
   0.7684585256098464,
   -0.5990991278604031,
   0.3251138721085212,
   -0.07461567179098692,
   -0.2807745674890695,
   1.1863063501850648,
   -0.9279289437846067,
   0.9472680726658491,
   -0.02682806110194541,
   1.0044669342348822,
   0.13843729240111388,
   -0.3773823009821352,
   -0.41577303643700053,
   -1.006320812850294,
   -1.153114224133115,
   -0.168962214543138,
   -0.041964606124328264,
   -0.8789692363887067,
   1.2809992528745187,
   0.5821214768906071,
   -0.38834705234284506,
   -0.2981397611858488,
   0.6948381618306321,
   1.2578672793876415,
   0.933245228232056,
   -0.18413513178207372,
   0.23693035780360883,
   1.0931822962987634,
   0.2672342005406088,
   0.12804831411102388,
   1.0305589446103725,
   0.9219306204434642,
   -0.4277397438760957,
   0.5454135546668348,
   -0.26973444456306556,
   -0.12080739205735624,
   -0.9833856459372047,
   -0.6358141620688867,
   -0.028365129559201452,
   0.873782986563757,
   -0.13666243602118178,
   -0.17030265718735438,
   1.3486980111330409,
   -0.8262967578537475,
   -0.14080629898815622,
   0.15007000798835385,
   0.0663646053620347,
   -0.8419764722629628,
   0.28646246960272254,
   0.2570862460612901,
   0.6835989674316351,
   -1.9632473204220422,
   2.363567258574286,
   -3.017565741901929,
   2.6015052659197444,
   1.1091516549957825,
   -0.3074908443329195,
   0.2500586591818996,
   -0.12283194764052419,
   -0.36700531220913746,
   -0.19558437197619538,
   -1.3411853991627791,
   -0.10290010106398295,
   0.509503292986379,
   0.2919649666051602,
   0.9488909400824351,
   0.4761791082133676,
   2.423031544286079,
   0.5201093570907551,
   -0.18659137757304517,
   0.9950833815991408,
   -0.7702130496352159,
   1.1098990071840638,
   -0.029122772998854962,
   0.13337402560911704,
   -2.2303240359377643,
   0.41539989567741664,
   0.5943399998543736,
   1.0652432752615142,
   -0.4670418791927464,
   -1.7729900455427205,
   -0.42487196252597254,
   0.3487997213694168,
   0.7905670554336663,
   -0.8378198196132712,
   -1.2386727843257745,
   0.6978637228625442,
   -1.199714280641735,
   0.4619250392841614,
   0.9006317455092481,
   0.3332780859276421,
   -0.03527577309985985,
   -0.8696984114134869,
   0.1589441487358207,
   -0.021115462463998844,
   -0.2904109343485775,
   -0.7743846190087165,
   0.11837184014948161,
   0.7286450850749845,
   -1.3469051802375782,
   -1.2295014830442599,
   -0.1637101100479203,
   -0.023955491091247085,
   0.30302728987801786,
   -0.03210286236595677,
   -0.9674694050553115,
   0.45425631852855425,
   -0.5373115878217996,
   -0.622787441339482,
   -1.7768148590942543,
   -1.196878092011347,
   0.43878602046153653,
   1.1373223856331443,
   -1.7289701382853668,
   0.38218505327844743,
   -1.406279765328933,
   -0.11350404531690612,
   0.9349921696309809,
   -0.4238137025143066,
   -0.43132497078036125,
   0.38439042680109314,
   -0.6830926238548558,
   1.7077980317535457,
   -0.3294648961498292,
   0.8975917684372853,
   0.8748360252016313,
   -1.165454579676688,
   -1.990811423698626,
   1.0023685938192226,
   -0.20586836566553735,
   -0.8474896389666944,
   0.4041852955048978,
   -0.9628979085047393,
   0.08477270462783112,
   0.5925664563101594,
   -0.21133447453963447,
   -1.3757861841260552,
   -0.2818696682560422,
   0.2578372980522689,
   -0.4316100667954269,
   1.0472220051717716,
   1.159957707671663,
   0.23268958732315528,
   -1.304677888370872,
   0.3983652679274369,
   0.2847412459146436,
   -0.26872740191947664,
   0.7071189777273157,
   -1.3655149859889057,
   -0.4299675112990178,
   2.1118088646636632,
   -0.7243042960217938,
   0.6296850756605853,
   -1.9101033480529805,
   0.0594112711627595,
   -1.345207223748243,
   -1.2253395915036955,
   0.11805542443483716,
   0.4195172317974425,
   -1.474912535093926,
   0.5969090125337869,
   -1.2813330327664834,
   1.2492542711308803,
   -1.591413252824131,
   -0.024760934173245014,
   -0.8656582286246657,
   0.8604096376422373,
   0.4901269065791533,
   1.0412331858518906,
   -0.21751940207594336,
   -0.21838537333937783,
   -0.18769810893381053,
   -1.090137415558805,
   -0.6822770139309376,
   -0.2446481375448244,
   -0.19234141837280544,
   -2.572940538734979,
   0.22420885536822893,
   0.9645944744104678,
   -0.17430750855128452,
   -0.11399742687645474,
   -0.540375777576592,
   0.26095857958027735,
   0.6612820109930158,
   0.5996000425850133,
   0.31661693903848714,
   0.8293034542535859,
   -1.2164015268507495,
   1.6781069180201045,
   -0.1943075224999657,
   -1.0040912065231828,
   0.5077353427391579,
   -0.1480675119418191,
   -1.0934074545035284,
   -0.9255672954078297,
   -0.637234399284979,
   -1.8083836349509184,
   -1.7391294275266902,
   -0.360488376976535,
   2.2302309106986162,
   -0.38495848795217585,
   1.0205105275678734,
   -0.8988056327819891,
   0.5030191787724535,
   -0.6377029197430238,
   2.1275286732002274,
   -0.617541849050739,
   -0.6023612708461302,
   -0.14876109785951117,
   0.0266362112519986,
   0.7875314064454693,
   0.054360332472477645,
   -1.286531843772673,
   1.1781498081563666,
   0.9224260639429331,
   -0.5376529743165263,
   1.39700404957863,
   0.1599288691034725,
   -0.0842547208003732,
   1.0011653349706595,
   0.5811339196367488,
   0.9104167607805848,
   -0.2649405173038259,
   -0.20664593924369073,
   -0.01835717124962002,
   -0.6337470123269616,
   -0.5843070035527625,
   -0.46492126338264234,
   0.908938845318412,
   -0.013377326380326189,
   0.5184949178884503,
   0.10478812645318226,
   0.2689614332226389,
   -1.3732315040835583,
   -0.7767844185822212,
   0.26741172581696343,
   0.4502635438826035,
   0.5052557685405563,
   -1.4908337536389389,
   -0.9705605505072186,
   1.5785921096967195,
   -0.49363176136115816,
   1.3767431612235173,
   -0.7233700364061921,
   -0.18634965518744903,
   1.4072381012170447,
   0.7175649194749831,
   1.5206870878616292,
   0.6873553712289411,
   -0.4035561681778273,
   -1.3523174014522237,
   0.2457608295176796,
   -0.9573239462001171,
   0.3420193544680455,
   -0.9031768438776204,
   -0.6534073220098876,
   0.4065975002577004,
   0.22263787156316406,
   2.238522310634877,
   0.6931277100104818,
   0.18391400964498908,
   1.838910384686956,
   -0.7049240639724187,
   0.15556086972718047,
   1.3104388285142539,
   -0.12453598141623236,
   1.077465670631624,
   0.41265905785685364,
   -0.6889388878477938,
   -0.3872786675692282,
   2.1300158187791163,
   1.1060480566867703,
   -0.015654144425267545,
   1.777133768102431,
   0.6354272800914706,
   -0.2830326086984596,
   -1.2513353729755639,
   0.30506580337671096,
   1.186506476545373,
   -0.5974367125266429,
   0.09409049803052656,
   0.696326691793005,
   -0.45194783238656094,
   0.6008812171374257,
   -0.2324593741857005,
   -0.28019006842774036,
   -0.9204006140453908,
   -3.174917120119736,
   -2.3521403950066073,
   -0.6386523295261085,
   -0.5902540552476487,
   1.1811100299784407,
   -0.9794775804801682,
   0.5186765925284899,
   0.5450545245852019,
   -1.1762035581531745,
   -1.6744367565535732,
   -2.2626885902760185,
   -0.00660530524645141,
   1.6084190277083752,
   0.5647609540485209,
   0.6757272810145779,
   0.8918224409415776,
   -1.5248950014733682,
   1.5671570428786892,
   0.10408890293681844,
   0.584361363939591,
   -0.5218168165408804,
   -1.4981094799436996,
   0.6217999972649201,
   0.6890182690972354,
   -0.20229157227044914,
   -0.21346938057614998,
   -1.050335696436741,
   -1.1667421626101944,
   -1.9473876219855322,
   2.0309730800114676,
   0.6295776020756813,
   -1.5821737916829322,
   1.1547729540691993,
   0.4479175604410696,
   1.2874870012566666,
   -1.0873293288208015,
   0.18563923822762324,
   0.8826684533736993,
   -0.017376313009723234,
   -1.4293413773364676,
   -0.6928462984428015,
   1.365728413538195,
   -0.4699436542405124,
   0.9684329566120156,
   0.4986441842285855,
   1.4010486921682077,
   -0.06222751397911841,
   -1.030152015918475,
   1.921125781414862,
   0.2316623731646813,
   -1.024872130084585,
   -0.5799651774569988,
   -1.1891028670143653,
   0.12226567321952711,
   -0.9628583003062029,
   1.4132137798474023,
   0.5914989049680905,
   0.46979854372133667,
